245 100
ます -0.0077953 0.013515 -0.0079048 -0.005146 0.010699 0.0084202 0.0036007 -0.0017515 0.015185 0.014666 -0.0045633 0.0044974 0.0059475 0.010912 -0.0074342 -0.0034661 0.00057908 0.0058254 -0.00051315 -0.0087808 -0.00046735 0.014409 0.0076905 -0.0063661 0.0028996 -0.010127 0.0023561 -0.0067324 -0.0072522 0.012137 -0.0081423 -0.0036262 -0.010876 -0.0094575 -0.015784 -7.8699e-05 0.0025909 -0.0091248 -0.0017788 -0.0068144 0.0080301 0.013803 0.0027074 0.0063152 -0.00056114 0.00089316 0.0011437 -0.0063893 -0.01078 0.0060669 -0.013833 0.011603 -0.010745 0.0065062 -0.0036681 -0.0082464 -0.0016755 0.0049072 0.0079816 0.0042777 -0.0085007 0.0092231 0.012449 0.00828 -0.0049074 0.0014225 -0.011148 0.0043101 0.0067543 0.0056613 -0.012022 0.0047149 -0.0039634 0.00026694 -0.0035956 -0.0042627 0.014068 0.012178 0.0030458 -0.0061205 -0.009509 0.0075614 0.01511 -0.0086626 -0.0027846 -0.009385 0.0017832 0.0010083 -0.0078483 -0.0041557 0.015278 0.0048508 0.017224 -0.013264 0.0029332 -0.012219 0.0057973 0.01163 -0.0093302 -0.0047194 
</s> 0.0030438 0.010576 0.0065145 -0.012358 0.012468 0.015143 -0.0092352 -0.00068075 0.0017105 0.0031455 -0.0035827 -0.0046499 -0.0083769 0.0057434 -0.0095138 -0.0092416 0.0037087 0.0061766 -0.0084034 -0.0010632 -0.0040554 0.017388 0.006061 0.0069409 -0.011373 -0.0097948 -0.009181 -0.0043217 -0.0076732 -0.0051831 -0.0064291 -0.0010951 0.0015599 -0.0087787 -0.012574 -0.0015509 -0.0080888 0.0037693 -0.00039012 -0.0030137 -0.011923 0.015963 -0.0061094 0.0074294 0.013158 0.001131 0.0138 -0.0051674 -0.0063082 0.0067512 -0.007845 0.0007033 0.00091851 0.0066207 -0.012043 0.00084908 -0.012936 0.0036169 0.012963 -0.0013854 -0.0022905 0.0076398 0.01157 0.011107 0.0032584 -0.003151 -0.011034 -0.0069048 -0.007403 -0.0060385 -0.0004939 0.0094438 0.0059636 -0.0082779 -0.0059155 -0.0028399 0.00044601 0.0060086 0.010558 0.0037024 -4.7256e-06 -0.0043526 0.0081784 0.0032689 0.0071011 0.0021872 -0.00099905 -0.0091565 -0.0092014 0.0065844 0.0087566 0.002685 0.010398 -0.0024325 0.010715 -0.0012896 -0.0011249 0.0045147 -0.010681 -0.0098926 
し 0.0081745 -0.0061512 -0.0019607 -0.004855 0.0031446 -0.0049068 -0.010487 -0.011392 0.012203 0.01266 -0.011802 -0.001513 -0.0035344 -0.0053109 -0.0043361 0.0042708 0.0026458 -0.0032485 -0.0084965 0.0034054 0.0083207 -0.0040454 -0.0055007 0.0021997 -0.0017158 -0.002686 0.0065246 -0.011699 -0.011558 0.0040208 0.0031852 0.0072675 -0.0061294 0.001921 -0.011545 -0.0073423 -0.0084986 0.0098262 0.0097167 0.0085924 -0.0095733 0.0080286 0.0055275 0.0016019 0.0054244 0.0041945 0.011675 0.00819 0.0052561 0.0095667 -0.004862 0.00091746 0.0059058 -0.005922 -0.011068 0.0071583 0.00060459 -0.0080375 -0.0053215 -0.0037474 0.010854 0.011936 0.0095073 0.0084285 -0.0070373 0.0045083 -0.0074846 -0.0030048 0.0036103 -0.009274 0.0073413 0.0055357 0.0031621 -0.01153 -0.011098 0.0036088 0.011559 -0.0029031 0.012498 -0.0093884 0.0086504 -0.0017014 -0.0051908 -0.0057906 -0.0011925 -0.0089867 -0.0020863 0.010675 0.0055748 -0.004913 -0.004666 -0.00060899 0.010767 -0.0044227 0.0044218 -0.0040262 -0.0027587 0.0062916 0.0045436 0.0081338 
の 0.00056841 0.013432 -0.0089831 -0.0051045 0.005625 0.012763 -0.0081672 -0.0020197 0.0090221 0.011105 -0.0069379 0.01161 -0.011277 0.0064406 0.0040155 -0.0083488 -0.0079202 -0.0075478 0.0083879 0.0024584 0.0096649 0.014031 0.0012755 0.0020799 -0.0095904 0.002637 0.0095718 -0.0048938 -0.013413 -0.0043518 0.0067992 0.0061661 -0.0019787 0.0075947 -0.0060258 0.008328 0.0021462 -0.0044951 -0.0027508 0.0046056 0.0008857 0.0037495 -0.005217 -0.0043158 0.00071533 -0.0049116 0.01176 -0.0025886 0.0045623 0.0099779 -0.014724 -0.0052519 0.00073349 -0.0071287 -0.0038923 -0.0080484 -0.0020711 0.0045398 0.0073276 0.0016921 -0.0098947 0.0059501 0.0072445 -0.0072387 -0.0074686 0.0030882 -0.00059494 -0.0071711 -0.0032582 -0.0057468 0.0076138 0.0042054 0.0011436 0.004181 -0.0031003 0.0099224 0.0087482 0.012215 0.010153 -0.0091404 0.00066091 0.0033908 0.012556 0.0075438 0.012092 -0.0011078 -0.0012007 0.0093138 -0.012409 -0.011026 0.0059309 -0.0069693 0.0060241 0.0016403 -0.0058792 -0.007464 2.0796e-05 0.0055986 -0.0052737 0.00086288 
を -0.0043978 0.0077787 -0.00086273 -0.00034431 0.013725 0.013081 0.0038013 -0.011866 0.0091926 0.0074602 -0.0019682 -0.0035659 -0.0078706 0.0046215 0.0073916 -0.00021218 0.0027292 -0.0023454 -0.0073185 0.0095841 0.010603 0.00073721 -0.0037449 -0.010619 0.0015149 0.002223 0.010932 0.0017911 0.0056931 0.010156 0.0049267 -0.010534 -0.010967 -0.0032808 -0.0019399 0.0076733 -0.010411 0.010541 0.0066049 0.00050976 -0.0048941 0.0013237 0.0089374 0.012278 0.0075543 -0.01196 0.0023451 0.0090094 -0.0035233 -0.0021531 -0.0095287 0.006926 0.0042519 0.00047636 0.0089677 0.0060347 -0.0073385 0.0073946 -0.0089127 0.011257 0.002837 0.0051654 -0.0021683 -0.0002125 0.0069725 0.0079353 -0.0079229 -0.010052 -0.0065749 0.0046806 -0.0063194 0.0015646 -0.0078599 0.0067183 -0.0077267 -0.0046568 -0.004637 -0.0086567 0.007998 -0.0042546 -0.0085473 0.0031506 0.0041009 0.0031325 0.0018261 -0.004627 0.0033784 0.0070558 -0.0071769 0.0068932 0.00992 0.00045973 0.014388 -0.0025628 0.0031547 0.0057154 -0.0007065 -0.0083204 -0.0090416 -0.0084846 
に 0.0099266 0.0053184 0.006471 -0.0043194 0.0051365 0.0036835 -0.00812 -0.0026399 -0.0087933 0.009859 8.4595e-05 0.0041612 -0.0056097 -0.0015131 -0.006708 0.0035378 -0.0070983 -0.00891 0.0079153 -0.0071217 -0.0081356 0.0022685 0.0070326 -0.0023638 0.0029629 0.0063771 -0.00052383 -0.0071765 -0.0088465 -0.0080266 -0.0078079 0.0068841 -0.0049661 -0.00080893 0.003899 0.0068429 -0.0074653 -0.0063331 -0.0088595 0.0093541 -0.0063247 -0.00064739 -0.0056205 0.0035649 0.0078944 -0.0028878 -0.0036406 -0.01106 -0.0049987 0.0088478 -0.0068373 -0.0088269 -0.010964 0.0073638 0.0042424 0.0022478 0.0022509 -0.0001626 0.0003227 -0.0027718 -0.0097784 -0.0044659 0.0098858 -0.0040869 0.0050018 0.0026081 -0.0098902 -0.0067334 -0.0052933 0.0073182 -0.002713 0.0073747 0.010577 -0.0097561 -0.0032788 -0.0023843 0.003542 -0.0079424 -0.007364 -0.0038479 0.0056115 0.0054637 0.0031279 0.011185 0.0069777 -0.0016459 -0.0095479 0.00082847 -0.0099005 0.010513 -0.0011791 -0.0016301 -0.0082578 0.0018577 0.0002994 0.00051796 -0.0088557 -0.00066274 -0.0069586 -0.0075605 
で 0.0076919 -0.00018368 0.0091519 -0.0096624 -0.0027948 0.005166 0.0044339 -0.0021891 0.0019704 0.00094462 0.0005622 0.0061732 -0.010791 -0.0092332 -0.0062467 0.0085689 -0.0016739 -0.0026604 -0.00024985 0.005243 0.0090376 0.0106 0.0018684 -0.0055084 0.0017734 0.0047588 -0.0058116 -0.0015725 0.00024039 0.01107 -0.0077764 -0.011209 -0.007589 0.0010818 0.0030796 0.0064456 0.0039864 0.0039982 0.00039141 0.00082384 -0.0044613 0.0081246 0.0065028 -0.0043252 0.0089226 -0.0070005 0.011099 -0.0079737 -0.001179 -0.0062557 0.0038276 0.0075614 -0.0059444 -5.1619e-05 0.0048516 -0.0037002 -0.0021666 0.0040724 0.0087393 -0.0014222 -0.00045092 0.0078443 -0.0089293 -0.0089191 -0.0068174 0.0072762 -0.011994 0.0045825 -0.0009952 0.011045 -0.0091019 0.003806 -0.005817 -0.0031134 0.00098428 6.1175e-05 0.00021256 -0.007722 -0.0067636 -0.0039601 0.0068852 0.0086658 0.0056759 -0.0077209 0.0080172 -0.0061564 0.0085396 0.0055322 0.008863 0.00050554 -9.7887e-05 -0.0047213 -0.00066986 -0.0019065 -0.0065888 -0.0089849 -0.0022028 -0.0035173 0.007485 -0.010618 
プログラミング -0.0069325 -0.0027599 -0.0092459 -0.0068223 0.010021 -0.0012748 -0.004445 0.0010872 0.0016981 -0.0058763 0.0026349 -0.0083628 -0.00054534 0.010608 0.0061775 -0.0015306 -0.0050244 0.0017122 0.0022179 0.0049388 0.00077522 -0.0022986 -0.0063679 0.0027113 -0.0061745 -0.006806 -0.0046769 0.0050997 -0.005953 0.0030336 -0.00050612 0.0085129 0.0098364 0.0036286 -0.010622 0.0052991 0.0086918 -0.0093521 0.0084171 0.001912 0.0052293 0.0073363 -0.00036219 0.0084766 0.0057793 0.0054852 0.0088868 0.0073135 0.0062017 0.010794 -0.0074269 -0.00026235 0.0053876 0.0093935 0.0017827 -0.0027458 -7.1649e-05 0.0012406 0.0069825 -0.007346 -0.001275 -0.0081454 0.010222 -0.0086338 -0.0065978 -0.0083436 0.0029386 -0.0032626 -0.0094701 -0.0049912 -0.00659 0.0061061 -0.0089612 0.0012852 0.0079637 0.0096561 -0.0054541 0.0075166 -0.0039348 -0.002845 -0.0029908 -0.0043323 0.0086973 0.0089249 0.00099415 0.0099253 -0.0005061 0.0045336 0.00046855 -0.0034812 0.011161 -0.0032808 -0.0084062 -0.0051538 -0.0098943 -0.006828 -0.0038112 -0.010032 0.0072709 -0.0033352 
・ 0.0062925 -0.0056188 0.008319 -0.0037196 0.008011 -0.0096089 -0.0021912 0.0029926 -0.0085702 -0.0033795 -0.0096026 -0.0029804 -0.0042599 0.010415 0.0041953 -0.0072123 0.0016361 0.0052557 0.008647 -0.0008627 -0.0092911 -0.0025686 0.0039181 -0.0062042 -0.00080857 -0.0041779 0.0094088 -0.0097614 0.008485 0.0054267 0.0022063 0.0103 0.0052821 -0.0024302 -0.0076821 0.0024242 0.0088362 0.0041303 0.0015885 0.0097269 -0.0086545 -0.0097458 0.0096257 0.007779 0.0079079 -0.0078045 0.0039429 0.0052924 -0.0031914 0.010323 -0.0038863 0.0046943 -0.0067704 0.0079586 -0.0019987 0.0071805 -0.00089688 -0.0092069 -0.0038302 0.0053213 -0.002727 0.0017682 0.0064385 0.010278 -0.0029773 -0.0074291 0.0089213 -0.0049038 -0.0053695 -0.0031732 0.0035309 -0.0090984 0.002313 0.0087605 0.0094429 0.007932 -0.0064547 0.0067476 0.0091466 0.009835 -0.0016128 -0.0034457 -0.0018401 -0.0079502 0.0094074 0.0072342 0.0051085 0.0026468 0.00025174 0.0018378 -0.00074025 -0.0046769 0.0090066 0.0060193 -0.0051093 -0.00272 -0.002762 0.0098506 0.0075235 -0.0035678 
相談 -0.0073629 -0.00049797 0.0018869 0.0069388 -0.0016166 0.007586 0.0045756 0.0013783 -0.0043469 -0.0073639 -0.0075571 -0.0053011 0.0069162 -0.0095424 -0.0078221 -0.0064868 -0.0039038 -0.010536 0.0025571 -0.004228 -0.004562 -0.0026388 0.0026246 -0.0040426 -0.0091479 -0.00061223 0.0068151 -0.0081667 0.0059956 -0.0072553 0.0026207 -0.0075902 0.0046036 -0.0055539 -0.0046855 -0.001858 -0.0057648 0.0089249 0.00047905 0.00015812 0.0032472 0.0065419 -0.0023958 0.0040415 -0.00074553 0.00096215 0.0050961 -0.0025497 -0.00082594 -0.0017035 -0.001162 -0.0082075 0.0011318 -0.00191 0.0051884 0.0047435 0.0036284 0.0095232 0.010141 0.0055421 -0.0048722 0.0027336 0.00012806 0.0050182 -0.0039013 -0.0072771 -0.0034386 0.0094967 -0.0040007 0.0048059 0.0036229 -0.0054654 0.0018841 0.0060816 6.028e-05 0.0061388 -0.0030943 0.0014696 0.006785 -0.0014498 0.0092076 -0.0066439 0.0060005 -0.0096494 -0.0066345 0.0021585 -0.010346 0.0053093 -0.0015968 0.00016971 0.0027646 0.008109 0.010456 -0.0054881 -0.0095491 -0.0031913 -0.0086239 0.0017878 -0.005241 -0.01009 
作成 0.0068479 0.0029385 -0.0068798 0.0080096 0.010057 0.0018702 -0.0024127 -0.0016412 -0.00017932 -0.0016802 0.0080245 0.00077596 -0.00039747 0.0013718 -0.0024962 -0.0032843 -0.00028106 -0.0071092 0.0089589 0.0072398 0.0029534 -0.0010914 0.0098525 -0.010344 -0.0051764 -0.0085392 0.0081422 -0.0043943 -0.0048738 0.0023059 0.010279 -0.008199 -0.00044592 -0.003474 0.0060807 -0.0084377 -0.00025183 -0.00052555 -0.0010066 -0.0091165 -0.0052802 -0.00072817 -0.0089224 -0.0027103 0.0074339 0.010304 -0.002253 0.005857 -0.0073186 0.00073752 -0.010533 -0.0044293 0.0068675 -0.00084147 0.003255 -0.0075562 0.0011358 0.0099805 0.0071869 0.0013732 0.0065447 0.0068213 0.0044688 0.0074651 -0.0043158 0.0099091 0.0040338 0.0003562 -0.0052202 0.0096306 0.0093291 0.010052 0.0063934 -0.0077663 -0.0030658 -0.0016606 0.00075233 0.0082908 0.005251 -0.0058638 -0.0030987 0.0059023 -0.0036297 -0.0035157 0.010479 -0.0068562 -0.0040496 0.00095836 -0.0076641 -0.0029627 -0.0045283 0.0034895 0.0081008 -0.0090784 -0.0099782 -0.0096402 0.0062742 -0.0024717 -0.0058248 0.0041693 
、 0.0086183 0.0072403 -0.0058906 0.0086667 -0.003125 0.0066655 0.0097171 0.00061942 -0.007823 -0.0038944 -0.0080395 0.0018233 0.0073013 -0.00027817 0.0061489 -0.0010935 0.00024079 -0.0079102 0.00050483 0.002066 0.0034521 0.0071463 0.0013045 0.0065629 -0.0076996 0.0054003 -0.0036585 0.0046499 -0.010964 0.0042359 0.0042508 0.0092515 -0.0020512 -0.010543 0.00028632 0.00037411 0.00010329 -0.0026769 -0.00063147 0.0018036 0.0032143 0.0060083 0.0071896 0.009098 0.0052285 0.001356 4.6765e-06 0.0015056 -0.0073572 0.0087789 -0.0077204 0.00029403 0.0042349 -0.0084098 0.008774 0.0041775 0.0018688 -0.0035849 0.0075711 -0.010234 0.0065708 0.0033881 0.0086201 0.0091016 0.0083369 -0.0044783 -0.0039641 0.0040474 -0.0079004 0.0018654 -0.0052609 0.0009732 0.0092766 0.0048163 -0.007015 0.0039171 -0.0014788 -0.0019536 0.0086332 -0.009469 0.0069311 0.0040629 -0.0057927 0.0060074 0.0065234 0.0057438 0.0092654 0.0021899 0.0012595 -0.0099966 -0.0018169 0.0088797 0.0005038 0.0095651 0.005487 -0.0015503 -0.0092933 -0.0023664 -0.0097179 -0.0067701 
開発 0.0018656 -0.0072166 -0.0072187 -0.0055721 0.0091524 0.00028671 -0.009222 -0.0036387 0.0037832 -0.0032235 -0.0024927 0.0089665 0.010413 0.008029 0.0036184 -0.0011689 -0.00094652 -0.003526 0.007712 -0.0046391 0.0091223 -0.00033969 0.0047581 0.0019141 -0.0033766 -0.0075193 0.0066774 0.0086426 0.0081002 -0.0045598 0.0015905 0.0032005 0.0071873 0.0021783 -0.0093566 0.0036892 0.0087727 -0.0064965 -0.0068827 -0.0018348 0.006049 -0.0055071 0.0097661 -0.0079406 0.0076496 -0.0081321 -0.00078433 0.0089445 0.0023091 0.0013066 0.0051997 -0.010025 -0.00071037 -0.0058305 -0.0032625 -0.005362 -0.0077492 -0.004054 -0.0080702 -0.004689 0.0035224 0.0068198 0.0052365 -0.0010049 -0.0081327 0.0075301 -0.0093974 -0.00014229 0.0048192 -0.0056279 0.0045936 0.0062388 0.0061576 -0.0048801 -0.0018148 -0.0081452 0.0033474 0.009236 0.001168 0.0075489 0.0014222 0.0015861 0.0027292 -0.0048605 0.0053693 0.00087718 0.00071847 -0.0022919 -0.0052283 0.00091772 0.0013369 -0.0094068 -0.0017239 -0.0085215 -0.0035174 -0.0068295 0.0052514 -0.0096946 -0.00047839 -0.0080091 
教え 0.0036196 -0.0032446 0.005538 0.0070187 -0.0050621 0.006442 0.0035868 -0.0058658 0.0085246 0.0027003 0.0025787 0.0049927 -0.0086644 0.0054578 -0.0028951 0.0060409 0.0054341 0.0084036 -0.0094599 -0.0035503 -0.0035076 -0.0036457 -0.0045538 0.0015342 0.0055692 0.0033633 0.0078564 0.0052941 0.0065013 0.0010292 0.005387 0.00052089 -0.0026833 -0.0050873 0.0076125 0.0076537 -0.0081576 -0.0098145 0.0043248 -0.0035681 0.0089553 0.0019702 -0.0016669 0.0050088 0.0067861 -0.0056481 -0.0093538 0.00032437 0.0038996 -0.0030002 -0.0012137 0.0074842 -0.0095838 0.0048013 -0.0098026 -0.0028386 -0.0074803 0.0045426 -0.0099997 0.0041914 -0.0099147 -0.0055566 0.0037857 0.010131 -0.0021961 -0.0059422 -0.0053565 0.00059181 0.0050367 -0.0030767 -0.0099804 0.0067576 0.005046 -0.00072615 -0.0055618 -0.0081205 0.0082695 -0.0089417 -0.0073965 -0.0016702 0.0054798 0.0045962 -0.0075576 0.0075746 -0.0021758 0.0074263 0.0075476 -0.0083352 -0.003956 0.0063257 -0.0065586 0.0051394 0.0051138 -0.006813 -0.0017642 0.0016046 -0.0023433 -0.0022599 0.0088714 -0.0034022 
言語 0.0019998 -0.0079524 0.0012484 0.0075814 0.0079824 -0.0085312 0.0018365 -0.004427 0.0028153 0.0048563 -0.0050595 0.010045 -0.011024 -0.0031774 -0.0056246 -0.0032588 -0.0002702 0.00898 -0.0053076 0.010154 -0.0067871 0.0077433 0.00096929 -0.0061779 0.0014155 0.0046701 0.0078514 -0.010081 0.0048328 0.0056517 -0.0041391 0.0087129 -0.0081068 -0.0073933 0.0079544 -0.0048766 0.00088002 0.0052765 -0.0060311 -0.0092676 -0.0074581 0.0082368 -0.0054622 0.0010084 -0.0012352 -0.0010418 0.011328 -0.0058314 0.0091633 0.0041422 -0.0084805 0.0071152 -0.0030545 -0.0016651 -0.0067049 -0.0074618 -0.00046461 -0.0026018 0.0038491 0.0046922 -0.0070123 0.0031132 -0.0088176 0.0070683 0.009009 -0.0076742 -7.0315e-05 4.3779e-05 -0.0026209 0.0024861 -0.0085566 -0.0029712 0.0040906 -0.0096876 -0.0098364 0.010408 0.0095548 0.0087172 -0.0026743 0.0090156 0.0048335 -0.0084064 -0.00026677 0.0088762 -0.0024726 -0.0045809 0.0059382 0.0024822 -0.0037006 -0.0097979 0.0098108 0.0030889 -0.0045299 0.0038325 -0.0076415 -0.010749 -0.0035704 0.00085116 0.0015405 -0.0013834 
が 0.0028744 0.0073672 -0.003603 -0.0089743 0.0034885 0.007236 -0.0071452 -0.0074017 -0.0034388 0.0075956 0.0056694 -0.0094698 0.0022447 0.002732 0.0057059 0.010691 -0.0023338 0.0010107 -0.0080605 -0.0072147 0.0088544 -0.0082284 -0.0097907 0.0098284 0.00015214 0.0036741 -0.0055863 0.010081 -0.010788 -0.005969 0.0039032 0.0087538 0.0097912 -0.0070995 -0.0077926 -0.0058482 -0.0093435 -0.0052721 0.0011003 0.0098419 -0.00065617 0.0057408 0.0095184 0.0067703 -0.0040737 -0.0081952 0.0041662 0.010143 0.0011257 0.0078017 -0.0038622 0.01069 0.00085465 -0.0034664 0.0052309 0.0074909 -0.0033669 -0.0070452 0.0084681 -0.0040208 0.0041484 -0.0062205 -0.006838 0.0051134 0.0063045 -0.0069143 0.0095545 0.001808 -0.0059923 0.0066498 0.0075935 0.008409 -0.010692 -0.0072941 0.0085894 -0.0039863 -0.0031088 -0.0094255 0.002445 0.002798 8.9846e-05 0.010646 0.0034734 0.002692 -0.0032251 -0.0076375 0.0051219 -0.0098484 0.0014561 -0.010184 -0.010175 0.0054324 0.0053428 -0.0041638 -0.0009036 0.0060333 -0.0047933 -0.0026482 0.006459 0.0027011 
代行 0.0037392 0.0026411 -0.0044285 0.0012305 0.0048362 0.0076712 -0.006603 -0.0043817 0.0093541 0.0060201 0.0062272 0.0065751 -0.0060569 0.0049778 0.0034987 -0.0062813 0.0019733 0.0037104 -0.0061746 -0.0024426 -0.0009756 0.0067952 0.0099522 0.0063439 0.00052274 0.002223 0.0068475 -0.0012621 -0.0033795 0.0057228 0.01011 -0.001155 0.00068193 -0.0080862 -0.010575 -0.0067474 -0.00069516 -0.003865 0.0094999 -0.00076048 -0.0076755 0.010412 0.0057788 0.008078 0.0046568 0.0084601 0.00059316 0.005665 0.007231 -0.00019298 0.0052268 0.0030452 0.0013736 -0.0063136 -0.0010548 -0.001853 0.0089764 -0.0025439 -0.00089537 0.0013642 0.0040692 -0.0090829 0.0098001 0.0023507 0.0021982 0.0041283 0.0086062 0.0014041 0.0049178 -0.0042236 -0.0046568 0.0043302 0.0088624 0.0062023 0.0055662 0.00046511 0.0030173 -0.0021619 0.0088834 0.0056881 -0.0063111 0.0012354 0.0024168 0.0088114 0.0022924 0.0060572 -0.0090877 -0.008575 0.006347 0.0049666 0.0089452 0.0068774 0.009961 0.0095539 0.0039737 -0.010931 -0.0014519 0.0057057 0.0060402 -0.0030938 
プログラム 0.0073671 -0.0071533 0.00090803 0.0012948 -0.00060069 -0.0080288 -0.0078615 0.0053921 0.0067028 -0.0085888 -0.0028616 0.0028206 -0.007208 0.00029204 -0.010815 0.0098765 0.0076409 0.00037776 -0.0015938 -0.0091981 0.0054144 0.00067265 -0.0090796 -0.0050044 -0.006152 0.0068704 0.0026634 -0.0083485 -0.0022935 0.0057023 -0.0050668 -0.0044493 7.1094e-05 -0.0041767 -0.00052984 -0.0034324 0.0067107 0.0015525 0.0022875 -0.0064345 0.0072972 0.0029007 -0.0024916 0.0043416 0.0042453 -0.00766 0.0068006 -0.0056713 -0.0061003 -0.0041561 -0.008829 0.0033277 -0.0052669 -0.0040496 0.0077416 -0.0071876 0.0041861 0.0029204 -0.0018297 -0.00082118 -0.010017 -0.0054769 0.0082454 0.0099003 -0.0041438 0.0082543 0.004195 0.0095123 -0.0024554 0.0080577 -0.0077054 0.0072457 0.001088 0.00094961 -5.479e-05 -0.0097537 -0.0020935 0.0082953 0.0078982 0.007946 0.010112 -0.0019312 -0.0012145 -0.010528 0.0047181 -0.00094754 0.0013355 -0.0019853 0.0065542 -0.0086956 0.010361 -0.0065384 0.0085852 0.003015 0.00057467 -0.0040048 -0.0028808 -0.0016983 -0.005871 0.0049611 
！ 0.0064159 0.0084288 -0.0074267 -0.0081335 0.001987 -0.0075494 -0.0039141 0.0087011 -0.00096869 0.0041771 -0.0068395 -0.0027569 0.0039919 0.0088454 0.0071249 0.0062007 -0.0053204 -0.0034445 0.0032811 -0.0040891 0.0023532 0.0017071 0.0001804 0.0027313 -0.0036289 -0.0034021 0.0078998 -0.010235 0.0010834 -0.0086979 -0.0033508 -0.0078601 0.0064916 -0.0048409 -0.0040589 -0.0053266 0.0020562 -0.0078289 -0.0081412 0.0045959 0.005637 -0.00059146 0.00081159 -0.0031514 0.0017441 -0.0093624 -0.0072113 0.008869 -0.0017528 -0.0046421 -0.0094943 0.009109 -0.0084715 0.005876 -0.0079895 -0.00164 -0.0055571 0.0094574 0.0083642 0.0092781 0.0088388 -0.00018638 0.0088755 0.0089241 -0.00064117 0.0027562 0.0066817 -0.0041817 -0.0080883 0.0029889 -0.00455 -0.00088087 0.0037915 -0.0010274 -0.00020083 0.0025347 0.0069607 0.0011464 0.001538 -0.0030763 0.005256 -0.0098665 0.0054446 0.00065107 0.0090062 0.0097075 0.00015269 0.0068994 0.0052967 -0.00027692 0.0018735 0.0078733 0.0096338 -0.0093374 -0.0079155 -0.0027163 -0.0060753 0.003424 -0.003402 0.0039859 
乗り 0.0036466 -0.0042094 0.00762 0.0065641 0.0082661 0.0087809 0.0011455 -0.0005405 -0.00054399 0.0041677 -0.0078586 -0.0098502 0.0027056 0.0033942 0.0020142 0.00099788 -0.0049081 -0.0062863 -0.0086509 -0.010318 0.0055907 0.0036952 0.0087535 0.004439 -0.0056148 -0.0075755 -0.0037175 0.0062324 0.0024108 0.0022747 0.003712 -0.00065452 0.0058008 0.0068282 -0.0038291 -0.00050046 -0.0086321 0.0076137 -0.0028873 -0.0087481 -0.0015324 0.0044356 -0.0078014 0.0086373 0.0050874 0.0095843 9.4515e-05 -0.0088806 0.00046422 -0.0086782 -0.0048061 0.004751 0.0023172 0.00039947 -0.00521 0.0052153 0.00714 -0.0026709 0.0055799 -0.0081392 -0.0092182 0.0008108 -0.0090955 0.0013353 0.0042957 -0.0032279 0.0044623 0.0079446 0.0026953 0.0093897 -0.0079699 -0.0022407 -0.0047139 -0.0059122 -0.0052358 -0.0018699 0.0066438 0.0063048 0.0058574 -0.0016694 0.0087614 0.0021064 0.00075984 0.00028524 -0.0088979 0.0060193 -0.0082261 -0.0010317 0.0057984 -0.0094632 0.0060831 -0.0014613 0.0066341 -0.0081821 -0.004714 0.00043874 -0.005989 0.0081704 0.0025051 0.0063911 
質問 0.002343 -0.008504 0.0047238 0.009533 -0.0069579 0.0032521 0.0054863 0.0034253 0.010085 -0.0016415 -0.0047568 0.0017357 0.0042659 0.0068807 0.0029638 0.00589 0.0027452 -0.0048451 0.0072912 -0.0044039 -0.010154 -0.0010738 0.0068607 0.001455 0.003674 -0.0051797 -0.0026703 0.0022836 -0.0047526 -0.0067248 -0.0017691 -0.0032094 -0.0048595 0.0027975 -0.0092401 -0.0050929 0.0092747 0.0051813 0.0067265 0.009364 -0.0084299 0.0024114 0.00011122 0.0091349 0.006394 0.0065239 -0.0043883 0.00060589 0.0037638 0.0089662 0.0037575 -0.0065275 -0.0099083 0.0011248 -0.0059419 -0.0043705 0.0077326 -0.0022516 -0.0041451 0.00641 -0.010026 0.0023334 -0.0034968 0.0055995 -0.0086806 -0.0032454 0.0030826 0.0021911 -0.0026207 -0.006932 -0.010128 0.0095591 0.0073663 0.0096119 -0.0070374 0.0077525 0.0066714 -0.00033609 -8.4169e-05 -0.0076975 0.0064571 0.0080198 -0.0037489 -0.0071024 0.0049614 0.0013491 -0.0030437 0.0089846 -0.0023824 -0.0093195 0.0061796 0.0090954 0.0061309 0.0015989 -0.0087938 -0.0058416 -0.0026242 -0.0097482 -0.0078402 -0.0046857 
致し 0.0028136 0.0087284 -0.0039677 -0.0086785 0.0033432 0.0064764 -0.01015 0.0022597 -0.0062166 -0.0044395 -0.0023291 0.0090653 -0.0022493 0.0087307 -0.0042524 0.0047781 0.0049325 0.0019428 0.010066 -0.0054832 0.0089064 -0.0077351 0.009931 -0.00038726 -0.00093418 -0.0053331 0.0061764 -0.0039612 -0.0083422 0.0021666 0.0099079 0.0079349 0.00085372 0.0081982 -0.00036012 -0.0095692 -0.0046466 -0.0027551 -0.0087395 0.0042127 0.0049932 0.010112 -0.0029689 0.00032871 0.0035688 -0.0080608 0.0056176 0.0031707 4.138e-05 -0.0082884 -0.0027918 0.0066622 0.0039132 -0.0058876 -0.0060138 -0.0041363 -0.0032534 -0.007333 0.00020875 -0.0003739 -0.0059411 0.00030423 0.0049048 0.0014866 -0.0087171 -0.0099856 0.0054558 -0.00032036 0.0055664 0.0032646 -0.0098518 -0.00035114 -0.00022803 0.00069824 -0.0051383 0.005589 -0.0090114 0.0028682 0.0020194 0.0025097 -0.00033887 -0.0049557 0.0030789 -0.007034 0.0040351 0.0089242 0.00041123 0.00048404 -0.0046984 -0.0072697 0.008765 -0.0049304 -0.0058688 -0.0056142 0.0093995 -0.010518 0.0014295 0.0012409 0.0081339 -0.0068177 
お手伝い -0.0030128 0.007967 0.0078739 0.006185 -0.0072914 0.0085159 -0.00089414 0.002195 0.0096679 0.0059501 -0.00099223 -0.0035984 2.5805e-05 0.002584 -0.0082755 0.0088987 0.0071686 0.0081328 -0.007892 0.0064815 -0.0014692 0.011546 -0.0097419 -0.0015885 0.00033728 0.0037076 0.0063864 0.0085448 -0.010048 -0.0035389 0.0064315 0.00042853 0.0099094 0.0010592 0.0024724 0.0071801 0.0073417 0.0086821 -0.0059906 0.0047483 -0.0094801 0.0026524 -0.010005 0.0036249 0.0072251 -0.0002719 0.011778 -0.0043366 -0.0066046 -0.0074311 0.0084496 0.010674 0.0044546 0.0091725 -0.0034972 -0.0096201 -0.0057235 0.0082167 0.0098368 0.0020793 -0.0038222 0.00079622 -0.0054546 0.0067914 0.0046569 -0.010204 0.0097931 0.00087956 0.006628 0.0019727 0.0041434 -0.0027591 -0.0085221 -0.0087578 0.0010256 -0.0038634 0.00064315 -0.0094026 -0.0012769 -0.00080523 -0.0036517 0.0043657 -0.0019088 0.0020329 -0.010443 -0.00049325 0.010633 -0.0035772 -0.00048027 -0.0081691 -0.0037314 -0.0086713 -0.00012362 -0.0088962 0.0060107 0.0031135 0.00010927 0.00088366 0.0057296 -0.010086 
に関する -0.0054105 0.0055963 -0.0022778 0.0085804 -0.0019754 0.0099789 -0.0058939 -0.005333 0.0042778 -0.0076636 -0.0013012 -0.0063114 0.0032172 0.01028 -0.008685 0.0077221 0.0078985 -0.0085803 -0.0081181 0.0041459 -0.002096 0.0033209 -0.0063298 0.00094468 -0.0094219 -0.0055675 -0.0098987 0.0030494 0.0023488 -0.0046039 0.005417 -0.010455 0.0072401 0.0059016 0.0073287 -0.0093831 0.0077473 0.0071254 -0.0055119 0.002612 -0.0085831 -0.0080388 -0.0030776 0.0052857 0.0033396 0.0087327 0.0063017 0.0026066 0.0076531 -0.0099737 0.0090482 0.0049294 -0.0039631 -0.0034647 -0.0077838 -0.0055848 -0.0041471 0.0049721 -0.0016578 0.0074654 0.0075917 0.0092265 -0.0036345 -0.003819 -0.0045033 -0.0029944 -0.0075628 -0.0020298 -0.0073173 -0.01004 0.0041029 0.0050871 -0.0019986 0.0015387 0.00036411 -0.0010868 -0.0013679 -0.0093024 -0.0045423 0.006336 -6.7379e-05 -0.0056494 -0.0051498 0.0078547 0.0068891 0.0093613 0.00076672 0.0074682 -0.0066653 0.0093816 -0.0022991 -0.0036482 0.009497 -0.0033514 0.0031456 0.0063697 0.010404 0.0058508 0.0051091 0.0073041 
サポート 0.0055755 0.0028835 -0.010016 0.0018766 0.0058727 0.0022975 -0.0048921 -0.0058863 0.0029854 0.0081034 -0.0081297 0.0028436 -0.0021419 0.0018078 0.001836 0.0077503 -0.0036442 0.0057015 0.004346 0.0011267 0.0031202 0.0021126 0.0010599 -0.0038808 0.0067801 -0.0015814 0.0061604 -0.0035742 -0.0072822 0.010027 -0.0019252 -6.4179e-06 0.0035335 0.0072234 -0.0046104 0.0052095 0.0022692 -0.00022011 -0.0026429 0.0023116 -0.0021964 -0.0058269 0.0028607 -0.0053939 -0.0035111 -0.0096308 -0.0053519 -0.0034743 -0.00702 0.0014626 0.0074456 -0.0044366 0.0060097 -0.0081021 0.0037603 0.0074833 0.0094926 -0.0039418 0.009421 -0.0037464 0.0035665 -0.0028108 -0.002381 0.0085934 -0.0043206 0.0019563 0.0065825 -0.0032311 0.0090561 0.0093453 -0.0067308 0.0058691 -0.0027624 0.0040676 -0.0085651 -0.0092423 -0.0051323 0.006673 0.00071415 0.0040514 -0.0037553 -0.0026338 -0.0072456 -0.0062398 -0.0021509 0.0073294 0.0034059 0.0047456 -0.0050287 0.0041637 0.010779 0.0011434 0.00052128 -0.0036321 0.00645 -0.010451 -0.003835 -0.0084599 0.0003266 0.00501 
コーディング 0.00465 -0.0055071 0.0033494 0.007698 -0.0073078 -0.0093884 -0.0078184 -0.0022359 0.0081699 -0.0067098 -0.005194 0.0090193 -0.0079891 -0.008962 -0.0085645 0.008892 0.0025531 -0.0076448 -0.0080251 0.0074905 0.001345 0.0010986 -0.00048519 -0.0030237 0.0034408 0.0022227 0.0033112 -0.0099027 -0.0068925 -0.00017196 0.0082601 -0.0038834 -0.0082959 -0.0060748 -0.0095798 -0.0045102 -0.0085569 -0.0096419 0.0034108 0.0016585 -0.0070193 0.0042387 0.0032045 -0.0013129 -0.0099658 0.0069731 -0.0049994 -0.0083892 -0.005299 -0.0065579 -0.0043662 -0.0037888 0.0091301 0.0085137 0.0033203 0.0084991 -0.0067067 -0.00036415 0.00050595 0.0012935 0.0068956 -0.010001 0.00018712 0.0020706 -0.010083 -0.0098062 0.0083621 0.0034434 0.0027923 -0.0040198 -0.0083021 0.0042806 0.0002421 0.0075149 0.003493 0.0024681 0.0003662 0.005084 -0.0031376 -0.00055581 -0.0042826 -0.0076444 -0.00097223 8.804e-05 -0.0059508 0.0056682 -0.0041988 -0.0022333 -0.0072029 -0.008746 -0.0091354 -0.0071718 -0.0092834 0.0041009 0.00072203 -0.0091462 -0.0052023 -0.00029603 -0.0073268 -0.00069937 
や 0.0010288 -0.00037436 0.0017996 0.0088296 0.0042807 0.0051777 -0.00093236 -0.0064531 0.00071519 0.0030786 0.0031823 0.0013013 -0.0035204 -0.0034235 0.00086067 -0.007576 -0.0053329 0.0096858 0.0022788 -0.0037829 -0.0026267 -0.0031923 -0.0062131 0.0091304 -0.0076309 -0.0059975 -0.0057658 -0.010063 -0.0016997 -0.0072841 -0.009247 0.00096991 0.007159 0.0062069 -0.0061698 0.0010891 0.00040241 -0.0015612 -0.00053024 0.0064796 -0.0020233 0.0075133 -0.0046777 0.0070027 -0.009299 -0.0012567 0.0014702 0.004882 0.010084 0.0096164 -0.010012 0.0032588 0.00071668 0.006575 0.0059651 -0.0084515 8.4532e-05 -0.0078548 0.0069687 -0.00048581 0.0057647 -0.0046083 0.0095152 -0.0010965 0.0075537 -0.0028965 -0.0014022 0.0081413 -0.0056852 0.0011914 -0.009785 -0.0095201 0.0084367 -0.00047718 0.0006739 0.003417 0.0089868 -0.0091437 0.010085 0.0030041 -0.0018426 0.0019614 0.0090435 0.0024208 0.0034879 -0.00041332 0.0081492 0.0059809 -0.005781 -0.0023903 0.0049268 -0.0090257 0.0097248 0.0078958 -0.00061424 -0.00895 0.0010487 0.0015473 -0.0047133 0.0065016 
課題 -0.0057808 -0.0078896 -0.0029616 0.00085923 0.010231 0.0090751 0.0072484 0.00034619 0.0026969 0.010535 -0.0040744 0.0059017 -0.0083245 -0.0013539 -0.0096989 -0.008802 0.00063522 -0.0086514 0.00095794 -0.0050838 -0.0029324 0.0048364 0.0042764 -0.00015145 0.0038293 0.0050332 -0.0027158 0.0013411 -0.0032247 0.009563 -0.00089665 0.0088961 -0.0090981 -0.0055916 0.0070744 -0.0043561 -0.0067208 -0.005846 0.0069235 -0.007737 -0.0088501 0.00078583 -0.002876 0.0088308 0.0013053 -0.0022997 -0.0047843 -0.0062998 0.0074297 0.0059995 0.0082951 -0.0069076 0.0020479 0.0047319 -0.0092888 -0.0084923 -0.0088528 0.0011895 -0.0060907 0.0098616 0.0097452 0.0095008 -0.0024068 -0.0086228 -0.0013665 0.0025699 -0.0013326 -0.0069427 -0.0097895 0.0082862 0.0092549 -0.0059937 -0.0088894 -0.0017756 -0.0040554 0.010594 0.0091918 -0.0058255 -0.0083468 0.0070173 0.0086268 0.0088411 0.008776 0.0095665 0.0041776 0.00022612 -0.0080923 -0.0020313 0.0088129 -0.0084684 -0.0036487 -0.001694 0.0037751 0.0089305 0.0061797 0.0011111 -0.010198 0.0030136 0.0031752 -0.0073599 
。 -0.0026243 0.0097367 0.0080591 0.0052996 -0.0032977 -0.0060982 -0.0020591 0.0068522 -0.0045495 0.0021166 -0.0017198 0.0031098 0.0013649 -0.0043825 0.0052322 0.0043779 0.0073489 -0.0015807 -7.9959e-05 0.00080974 0.0020973 0.0038547 -0.004396 -0.0017289 0.0009573 -0.0054961 0.0050554 0.0029044 -7.5191e-05 0.0039441 0.00015334 0.00082369 0.0090866 0.0045655 0.0037605 -0.0069622 -0.002116 -0.0052457 0.00070713 -0.0098548 0.0079893 0.0066333 -0.0014981 -0.0032523 -0.0046515 -6.7798e-05 0.007563 -0.00086147 0.0042787 0.0026482 0.008079 -0.0073888 0.009154 0.0065005 -0.0043936 0.0070467 -0.0056536 -0.0083915 0.0024923 0.00089469 0.0046772 0.0020751 -0.0096905 0.0091827 0.0079948 -0.0074403 -0.0052828 0.0052427 -0.0053942 -0.0064052 0.0047591 0.0098416 -0.0085563 0.0048667 -0.0044204 -0.00095965 0.0091791 0.0072572 -0.0065722 0.0059532 -0.0071853 -0.0063572 -0.00049036 0.0042152 0.0036573 -0.00067056 0.0027641 0.00035635 -0.0087814 0.0095476 -0.00027735 -0.00035813 0.0082884 0.0044714 -0.0082896 0.0071047 -0.0092979 -0.0097174 0.0069564 -0.009323 
な -0.0019118 0.0090589 -0.0071169 -0.0072672 -0.003431 0.0068068 0.0018573 0.0012995 9.2721e-05 0.0029287 0.0041994 0.0072284 -0.0081765 0.0033352 0.0069098 -0.0057629 -0.0040728 -0.00065429 0.0037586 -0.00041011 -0.0079607 0.0022647 0.0045111 0.005581 0.00018396 -0.0027045 0.008989 4.9932e-05 -0.00011235 0.0079553 -0.0073543 0.0099596 0.00049924 -0.0056823 0.0085442 0.0021806 -0.0029523 -0.00020786 0.0041761 -0.0031389 0.0050161 0.0049521 0.0021462 0.0083229 0.0014766 -0.0052039 -0.0050407 0.0046435 -0.0045302 -0.00336 0.0045513 0.0041775 -0.004628 -0.0016995 -0.0071241 -0.00040649 -0.0087887 0.0025346 -0.0037263 0.0071164 0.0034811 -0.0070511 0.004026 -0.00079915 -0.0097636 0.0056372 0.0053841 -0.0075458 -0.00090494 0.0039907 0.0036255 -0.0088438 -0.0056582 0.002616 0.0037834 -0.0048051 -0.005317 0.0093762 -0.0079757 -0.008985 -0.0049476 0.0046408 0.0013629 0.001477 0.0067725 -2.0336e-05 0.0096617 0.0059106 0.0043587 -0.010045 0.0090364 -0.00067966 -0.0017056 0.0066168 -0.0049345 0.0094384 0.0061241 -0.0094537 0.0055916 0.0042365 
アプリ -0.0037815 -0.0099685 0.0068493 -0.0053002 -0.0057838 -0.0092391 -0.0060019 -0.0037235 -0.0085313 0.0049045 0.0022154 -0.0089184 0.0086595 0.002876 0.0062022 -0.0094091 -0.0056661 0.0059223 -0.0085245 0.0086104 0.00020926 0.007611 -0.0048639 -0.0070806 0.0028448 0.0013452 -0.0033136 0.0029469 0.0071127 7.589e-06 -0.009306 0.0068344 0.0037874 0.0076121 0.0099009 0.00088676 0.0022797 0.0051594 0.0078473 0.0083972 -0.0039476 0.0016625 -0.0076278 -0.0037724 -0.00088736 -0.0051298 0.0026619 0.0044283 0.009174 -0.0042609 0.0078613 -0.0054678 0.0003568 -0.0041423 -0.0050891 0.0044789 -0.0033018 0.0023063 0.0073392 0.0059854 0.0079304 0.0019339 -0.0026918 -0.0045363 0.0062874 0.0060121 0.0078947 0.00031861 -0.0070079 -0.0050157 0.0037042 -0.0017508 0.0053831 0.00051073 0.00049691 0.00027734 0.0024688 -0.007839 0.0098172 -0.0091877 -0.0073047 -0.0069774 0.0038795 -0.004017 0.0080771 -0.0024622 -0.0085588 0.0020785 -0.0064378 -0.0063755 -0.0043306 -0.0066053 0.0062758 -0.0083252 -0.0043904 0.0095428 -0.0036939 -0.008479 -0.0045704 -0.010322 
コード -0.0060873 -0.0090465 -0.0041969 -0.0024436 -0.0086725 -0.0064639 0.0054256 0.0037754 0.0092048 -0.0039727 -0.0034313 -0.00028315 -0.0058123 -0.0057092 -0.0057763 -0.0057252 -0.0087966 -0.00010837 -0.0072953 -0.00425 -0.0068946 -0.0065862 -0.0074501 0.0050082 -0.00018819 -0.0055031 0.0056999 -0.0026409 -0.0022739 0.0096209 0.0078026 -0.005237 -0.001258 -0.0065814 -0.0044737 0.0022961 -0.0061922 -0.0067126 0.0042611 0.0088171 0.0013064 -0.0039516 0.0099027 -0.0059578 0.0039598 -0.0026518 0.003935 -0.0095267 -0.0048896 -0.0084899 0.0087121 0.0016755 -0.00062034 -0.0084494 -0.001743 -0.0016319 -0.00040207 0.0047276 0.0063184 -0.00071546 -0.010088 -0.00030858 -0.0049823 0.003201 -0.0097213 0.0034438 -0.0056665 0.0074819 -0.0094836 -0.0074152 -0.0018446 0.010358 0.0085089 3.1369e-06 0.0025818 -0.007141 -0.0011652 -0.0012509 0.0023262 -0.0075048 0.008372 0.0039049 -0.0066701 0.0078607 0.0042727 0.005844 -0.0048961 0.0055306 -0.010178 0.0064784 0.0058065 -0.0061304 -0.00052759 -0.010344 -0.0040526 0.008077 -0.00431 0.0096892 -0.0097671 0.0089628 
/ 0.0065226 -0.003518 -0.0080116 0.006459 0.008767 0.0041587 0.0030229 -0.006196 -0.0063546 -0.0053435 0.00043877 0.0065783 -0.0090125 -0.0028053 -0.0086673 0.0064699 -0.0091674 0.0043206 0.0055147 0.0093384 0.0033794 0.0090892 -0.0037477 -0.0088317 -0.0072328 0.0029608 0.008985 0.0050742 0.008705 0.0022286 0.0092611 0.0066978 0.0011877 -0.0046534 -0.00068254 0.0039316 0.0042757 9.9872e-05 0.0029879 -0.0069153 0.0013888 0.0046193 -0.0013378 0.0073842 -0.0082895 -0.008125 -0.0026088 -0.0049433 -0.0036059 -0.0080624 -1.3722e-05 0.0012299 -0.0062623 -0.0034193 0.0058527 -0.010589 -0.0035845 0.0099679 -0.00039241 0.002837 0.0067016 -0.0038944 0.0041931 -0.0015162 0.0050592 0.0025277 -0.0060986 0.00079472 0.0073531 -0.0033323 0.0075217 0.0035897 0.008522 0.004957 -0.01018 -0.0084774 0.009811 0.0046549 0.0077162 0.005732 -0.0031926 0.00078174 0.0063918 0.0076179 -0.005707 0.0049877 0.0021701 -0.0011628 0.0064767 0.00076376 -0.0088239 -0.0091818 -0.0062267 -0.0092185 0.0036624 -0.0054348 -7.2659e-05 -0.0056314 0.0040128 -0.0026152 
システム 3.5929e-06 -0.0029663 0.0043071 0.00072121 0.005087 0.0014282 0.0065307 -0.007726 -0.0071192 0.0032955 0.0078481 -0.00066247 -0.0035916 0.0011174 0.0099134 0.00015705 -0.0080791 -0.0054576 -0.0063339 -0.0050724 0.0067833 0.0043847 -0.0031193 -0.0055091 0.0047661 0.0050628 -0.0042749 -0.0080339 0.005111 0.0035192 0.007301 0.0039994 -0.0076458 0.0054746 -0.0059046 -0.0082016 -0.0071273 0.010079 0.0026738 -0.010031 -0.0053831 -0.0065555 0.0014596 0.0032909 -0.0051081 0.0025696 0.0042004 0.0072232 0.0005947 -2.7773e-05 0.0099246 -0.0031695 -0.0033704 -0.00031316 -0.0072061 0.0067768 -0.0044603 -0.0043334 0.0070041 0.008629 -0.0088203 -0.0032879 -0.00077172 0.0029013 -0.0039863 -0.001232 0.0058269 0.00159 -0.0095656 0.0034037 -0.0068229 -0.0042759 0.0095027 0.0029091 -0.0069459 -0.0060268 0.0024485 -0.0081087 0.0098961 -0.010031 0.0013032 -0.0067242 -0.0022892 -0.0093999 -0.0061027 -0.007521 -0.0036626 0.0019405 0.0075719 -0.0049956 -0.0072549 -0.0046526 0.0073503 0.0032064 -0.004213 -0.005152 -0.0050575 0.0090814 -0.0076234 -0.0035457 
から 0.0084451 -0.0068051 -0.00025991 -0.0042386 0.0086152 -0.0031811 6.059e-05 0.0076733 -0.00038348 -0.0039148 0.0092895 0.0080421 0.0076411 -0.0044714 0.0011142 0.0085222 0.0087473 -0.0047853 0.0062948 -0.0045354 0.0022341 -0.00060913 0.001489 0.0018537 -0.0082633 0.0014266 -0.00079181 -0.0011837 0.009188 0.004207 -0.0049936 0.0025819 -0.010077 0.0075594 0.001164 0.00075662 0.003555 -0.006066 -0.0067641 0.0096498 0.0042808 0.0019498 0.0078321 -0.0078486 -0.0063116 0.0060439 0.0065787 0.00076021 -0.0062225 0.006118 0.000134 -0.0027936 -0.0056299 0.0023748 -0.0086163 -0.0041408 0.0040898 0.0084762 0.0020631 0.0070516 -0.0019857 0.0046767 -0.0033666 -0.00086331 0.0046276 0.0017827 -0.0067702 0.0081995 0.0083915 -0.00017473 -0.0080672 -0.0094781 0.0045086 -0.003169 -0.0016276 -0.01007 -0.008054 0.0093618 0.0077554 0.0037673 0.00058559 -0.0077876 -0.0044738 -0.0028119 0.0061623 0.0056534 -0.00019689 0.0039225 -0.0036688 -0.00017666 -0.0098987 -0.0042276 0.0013833 -0.0010661 0.002856 -0.0049246 -0.0054358 0.0021711 -0.0071966 -0.0010472 
も 0.006843 -0.0055777 0.0046105 -0.0019181 0.0030343 0.0087325 -0.0017032 0.003929 -0.0011256 0.0036538 -0.0056397 0.00093388 0.0038371 0.0080378 0.0048649 0.0089014 0.0055967 -0.0079983 -0.003951 0.0065932 -0.0012645 -0.0093444 -0.0045559 0.0046446 0.0069417 -0.0047216 -0.0065212 -0.0029325 0.0041495 -0.0013981 0.0053333 -0.0072527 0.0027271 0.008355 -0.0056992 -0.0063067 0.0079693 0.0020962 -0.0054582 -0.0086708 -0.0082997 0.0081144 -0.0042961 -0.0057569 0.0063904 -0.008203 -0.0086861 -0.004936 0.0088638 0.0068066 0.0058732 0.0087012 0.0021866 -0.0030236 -0.0082618 0.005482 -0.007028 0.005117 -0.0073554 -0.0010859 -0.00083767 -0.0043075 0.0044074 -0.0019509 -0.0061021 -0.0088428 0.0081469 0.0081854 -0.0039848 -0.0039781 -0.00496 -0.0095331 0.0031025 -0.001566 0.010116 0.010064 0.0065272 -0.0037107 0.0045814 0.0018773 0.0051102 -0.0078985 -0.0065252 0.0042512 -0.0069409 0.0046782 0.0088936 0.0032348 0.003196 -0.00097992 -0.0057969 -0.002575 0.0091123 -0.0016831 0.005345 0.0058414 -0.0062961 0.0055547 -0.0067192 -0.0076827 
アドバイス 0.0056801 -0.0083913 0.0080714 -0.0051996 0.0084144 0.0088295 -0.0045273 0.0067438 0.0051515 0.0099003 0.0053911 -0.002451 0.00058347 -0.0024037 -0.0045764 0.0049716 0.0065275 -0.0094817 -0.0083164 0.0068951 -0.0054237 -0.0057496 0.0063365 -0.0062066 -0.00053181 -0.0051959 0.0019849 -0.0017672 -0.0080911 0.0031329 0.0051362 0.00268 -0.0054348 -0.001939 0.0011581 0.0026325 -0.0073619 -0.0086556 -0.0047142 0.0019893 -0.0018102 -0.0073043 -0.0016746 -0.0062257 -0.0024626 0.0095136 0.0038017 -0.0013865 0.0080185 0.0092536 0.010255 0.0075138 -0.0053016 0.0069888 0.0019111 -0.0027373 -0.0069122 -0.00010002 -0.0033397 -0.0098844 0.0042439 0.0030647 0.0088694 -0.0097501 0.0077714 -0.0080851 -0.0089068 0.0044073 6.965e-05 -0.0089961 0.0024514 -0.0022343 -0.0084943 0.0059508 0.00096368 0.0073576 -0.0025871 -0.0075356 0.003576 0.0094019 0.0084084 0.0079484 -0.00077913 -0.0091773 -0.0043375 -0.0086236 0.0094755 -0.0081084 -0.0020829 -0.0031851 0.00094517 -0.0085491 -0.0047302 0.0036414 0.0025454 -0.001932 0.0077438 -0.0041623 -0.0091448 0.0059942 
++ 0.0016316 0.0055691 0.0045613 -0.0022801 -0.0049357 0.010391 0.0026522 0.002464 -0.0028828 0.0021482 -0.0011124 0.0073419 -0.010753 0.0038419 -0.0099959 0.0062364 0.0074841 -0.003219 -0.0037492 -0.0060758 0.007567 0.0066432 -0.005284 0.0022666 0.0080565 -0.00059437 -0.008271 -0.0048934 -0.00067601 -0.0067312 0.00090659 -0.0057827 -0.000127 -0.0044823 -0.0062663 -0.001584 0.0064783 0.0051042 -0.0065832 -0.00065538 0.0053214 0.0080674 -0.0016857 0.0090703 0.0058572 0.0063482 -0.0075055 -0.0062965 -0.0084967 0.0015193 0.0046523 -0.0095544 -0.0067674 0.0012149 0.00079695 -0.0045567 -0.0067059 0.0023586 0.0064227 0.0047909 0.0054102 0.0096384 0.0035782 0.001206 0.0056589 -0.0001414 0.0039655 -0.0039554 0.0057992 -0.0040372 -0.00049403 -0.0049429 -0.0069763 0.0063096 -0.0015521 0.0072039 0.0066877 -0.0062216 0.0053422 0.0011783 -0.009454 -0.008018 -0.0057614 -0.0061248 0.0056178 -0.0012693 0.0088233 -0.0041972 -0.0062593 0.003667 -0.0071484 -6.7084e-05 0.0024422 -0.0011284 0.0032817 -0.0042943 -0.0026727 0.0091793 0.0076733 0.002589 
書き 0.00032184 0.0015754 -0.0081324 -0.0094359 0.0015841 0.0030003 -0.0002762 -0.004081 0.0053941 -0.0046998 0.0052206 0.0074469 -0.0014553 0.005654 -0.0098979 -0.0058781 -0.0088493 -0.009021 -0.00078867 0.0067215 0.0087629 0.001812 0.0086557 -0.0040262 -0.0021722 -0.010291 -0.0020097 0.00097052 -0.00086871 0.0068049 -0.008258 0.0071046 -0.0093454 0.0030661 -0.0038128 -0.0045815 0.002663 0.0023035 -0.0079074 0.0048241 -0.0010861 -0.0078177 0.0057716 -0.0019213 -0.0016496 -0.0058867 0.0050615 -0.0016646 -2.1472e-05 0.0090666 -0.0051534 -0.0046071 0.0091582 -0.010138 -0.0099293 -0.0052235 0.0016639 0.0064199 -0.0089526 -0.0025249 0.0037508 0.0055273 -0.00025956 -0.0037685 -0.0041675 0.0096436 -0.0030186 -0.0010506 0.0037116 -0.00097136 0.0048055 0.010526 -0.00077994 0.0051974 -0.0053764 -0.0033816 0.0029814 -0.0031248 -0.0044965 -0.010167 0.0069743 0.0037744 0.0053126 -0.0065599 0.0050728 0.0015486 0.001609 -0.0093097 -0.0023931 0.0028639 0.0062499 -0.0035905 0.01108 -0.0013925 -0.0027473 0.0007965 -0.0077041 0.0029986 -0.0037612 -0.0094805 
化 -0.0045324 -0.0020422 0.0042687 -0.0069933 0.0077708 0.0051325 -0.004726 -0.002274 0.0010859 0.0084348 0.0086307 0.0087942 -0.0079638 -0.0038725 0.0074873 -0.0051976 -0.00090982 0.0038429 -0.0050492 -0.0056685 0.0089115 -0.0044812 0.0020002 -0.0077914 0.00081571 0.0051614 0.0066587 0.00972 -0.0029485 0.010115 0.0037359 0.0099587 -0.0057235 0.0092135 0.0032061 0.0012985 0.0091439 0.0060768 -0.0071549 -0.0094399 -0.0035912 0.0073466 -0.0071217 -0.0018762 0.0074578 -0.00059989 0.0024265 0.0042116 0.00058342 -0.00011369 -0.0066492 0.0050938 -0.0027441 -0.0031027 0.0035531 0.0042643 0.0099556 -0.0054747 0.0098625 -0.0021703 -0.0098301 0.0053832 0.0046684 0.0028151 0.007205 -0.0059775 -0.0015895 0.0054891 0.0081314 -0.0084681 0.00048365 -0.0058693 -0.0037926 -0.002489 -0.0053423 -0.0090757 -0.0089787 0.0051022 0.00060189 0.0052127 0.0032693 0.0055354 -0.0030229 -0.0078353 0.0083149 -0.0060988 0.0084153 0.0057432 -0.0076605 0.002813 -0.0092528 0.0027509 -0.0032413 0.0078306 -0.0050659 -0.009825 -0.0019864 -0.0012247 0.0092018 0.0035141 
やり 0.009766 -0.0019354 -0.00016304 0.0049235 0.0015473 0.0044644 0.0026365 0.0041289 0.0073672 -0.0037548 0.0038786 0.0063851 -0.007214 0.0059207 -0.0071073 0.0045476 -0.002772 0.0057677 0.0014125 0.0096669 0.0018293 0.0064451 0.0010721 -0.003449 -0.0083371 0.0066005 -0.010019 0.0018776 0.0022885 0.0034836 -0.0072674 0.0090047 -0.0027475 -0.0003902 -0.0018289 -0.005219 0.0033264 -0.0098817 -0.00022688 0.0075147 -0.006161 -0.0074615 0.0091721 0.0035364 -0.0099939 -0.0035137 -0.0057982 0.00062996 -0.0085432 0.002103 0.0050587 -0.0082548 0.0052097 0.0035877 -0.00065409 -0.010027 -0.0037107 0.0033775 -0.0049545 0.0030825 0.0022156 0.0035425 -0.0049526 -0.0080058 -0.0083935 -0.0026964 -0.0040029 0.0041766 0.0065152 0.0072014 0.001484 0.0058221 0.0031075 0.0051425 -0.0096945 -0.0093095 0.009992 0.00934 0.00099974 0.0019785 -0.0096198 -0.0050382 -0.0060584 0.0033674 -0.0014786 0.0099934 0.0063915 -0.0078519 0.0012412 -0.0063941 -0.0011706 -0.0074808 -0.0037866 -0.0054084 0.0049125 -0.0080773 -0.0052367 -0.00034338 0.0029323 0.0078032 
答え 0.00040679 0.00067072 -0.00091613 -0.0039393 0.0090401 -0.0059889 0.0029402 0.0077063 -0.0058256 -0.0029884 -0.0095687 0.0089521 0.0011804 -0.0088913 0.0087388 -0.0097941 -0.0060883 -0.0095389 0.0062467 0.0053153 0.0067909 0.0021438 0.0037271 0.0094405 0.0014157 -0.004192 0.0025007 -0.0036752 0.0062698 -0.0085701 0.0095422 0.004875 -0.0002817 0.0036711 -0.0047341 -0.0023488 -9.0382e-05 -0.004728 0.00088139 0.0029661 0.0012664 -0.0027491 -0.0022658 -0.0060504 0.0040049 0.0012168 0.0026135 -0.0074232 0.0099406 0.0084993 -0.0090828 0.0012959 -0.0059808 -0.0067729 0.0053419 -0.010676 0.0015429 0.0080573 -0.00015251 -0.00041965 -0.00059237 -0.0074485 0.010985 -0.0071056 0.00074453 0.0039728 0.0024277 -0.0075764 0.0069783 -0.0079006 -0.0078766 -0.0077856 0.00045513 0.0082356 -0.010529 0.0010073 -0.0012556 0.0060064 -0.0061246 0.0063583 0.0056859 -0.0060388 -0.0027738 0.00055917 -0.0049503 -0.0072018 -0.0049629 -0.0028833 -0.0090157 0.0054452 0.0020963 -0.007322 0.0078664 -0.0082493 -0.0041647 0.0026205 -0.0030504 -0.00837 -0.0098756 -0.0017355 
いたし -0.0090123 0.001429 0.0076583 0.0019446 0.0020597 0.0090727 -0.0051146 -0.0037635 0.01026 -0.0001751 0.0048344 -0.0011692 0.0061187 -0.00048924 -0.009783 0.0061167 -0.0015722 -0.0087619 0.0061586 0.00052237 -0.0024928 0.0097087 0.0068383 -0.004607 -0.0085206 0.0080089 0.0079681 0.0033643 -0.010217 -0.0025064 0.0073504 0.0059144 -0.0057627 -0.0089975 0.00024675 0.000125 0.0071026 -0.0015654 0.0038639 -0.0081952 -0.00092998 -0.0036604 -0.0051814 -0.0058404 0.0054044 -0.0075218 0.010362 0.0046069 -0.0089059 -0.0014524 -0.0057062 -0.0045225 -0.0012298 0.0094743 -0.0004972 0.0022948 -0.0087113 -0.0087447 0.0083727 -0.010346 -0.0095192 -0.0037964 -0.004756 0.0046254 -0.0081882 -0.00032315 -0.0033489 -0.0026089 0.0049536 -0.006149 0.0090251 0.0012704 0.0033812 0.0023878 -0.0082223 -0.0094084 -0.0022327 -0.0087992 0.0067132 0.0030119 0.0074932 0.0093222 0.0065389 -0.0079356 -0.0079664 0.0018369 -0.0079974 0.0014632 -4.0155e-05 0.010215 0.003948 -0.0057441 -0.0028716 -0.010009 0.0040591 0.0029521 -0.00097027 0.0066888 0.0073753 0.0034125 
お -0.0023375 -0.0011181 0.0018883 0.0021199 0.00020572 0.0056473 -0.005182 -0.0095805 -0.0085913 -0.00090961 0.000908 -0.0092023 -0.00080767 -0.007497 -0.00058569 -0.010075 -0.00702 0.0014428 0.0050445 0.0028481 -0.0015834 -0.0043242 0.0058333 0.0011255 0.0081247 -0.0064626 -0.0059093 -0.0091679 0.0065854 -0.0097496 -0.0040011 -0.0071402 -0.0085175 -0.0061326 -0.0077964 0.00065796 0.0020063 -0.0085639 -0.005277 0.00068666 -0.0061564 -0.0037337 -0.010118 0.0094205 -0.0039892 -0.0086843 0.0098794 -0.0008292 0.0028943 0.0020721 0.0076191 -0.0068287 0.0084169 -0.0018193 -0.0081256 -0.0070439 0.0042109 0.0081315 -0.0083286 -0.0021493 -0.010058 0.0022346 -0.00032546 0.0061765 -0.0075331 0.0099653 -0.0081759 0.0064384 -0.0056654 0.0047731 -0.0028432 -0.0032796 0.0027384 -0.0067376 -0.00069784 -0.0073684 0.0071632 0.0068442 -0.005306 0.0078352 -0.0014732 -0.0060551 -0.0032238 -0.0095359 -0.0063651 -0.0085917 -0.010069 0.0042858 0.0093506 -0.0070906 0.0059265 -0.0083312 0.0096964 -0.0060313 0.0063348 -0.0074025 -0.0067754 -0.0092751 -0.0055965 -0.0045291 
お答え -0.0060563 -0.0091012 0.0021276 -0.0056296 -0.00639 -0.006389 0.00058806 -0.0072372 0.002498 0.0078869 0.0029837 -0.0041115 0.0082956 0.0069398 -0.0069546 -0.0020473 0.0054989 -0.003847 0.0057847 -0.0067797 0.0097958 0.0020462 -0.0019946 0.0049196 -0.0067593 0.0058235 0.00062328 0.0016539 -0.0080137 -0.0026267 0.0076039 -0.0068266 -0.0073799 0.0047842 0.0085628 -0.0087638 0.0023378 0.0038692 -0.010027 -0.0074595 -0.0098059 -0.0022206 0.005885 0.002572 -0.0097979 -0.0079778 -0.0051937 0.0013247 0.008445 0.0041311 -0.006968 0.0050897 -0.0013182 0.0097047 0.0045367 -0.008498 -0.0061797 0.00024513 -0.00026444 -0.008424 -0.0012993 0.0033784 -0.0032927 0.0054221 -0.0044453 -0.00031571 0.010047 -0.0006925 0.0049052 -0.0054892 -0.0095644 0.0058413 0.0039731 -0.0038004 -0.0088764 -0.0031008 -0.0043257 0.0033392 -0.0040357 -0.0065821 0.00094211 0.0068829 -0.0041645 0.0034718 -0.00096857 -0.0056671 -0.0031809 -0.0063305 0.0064703 -0.0028029 0.0037913 0.0080485 0.0038973 0.0099868 0.0001732 -0.0033278 -0.00012731 0.0086042 0.0034706 0.0038174 
スクレイピング 0.0016235 -0.0064359 -0.0047868 0.0026783 -0.0073531 -0.006312 -0.00070721 0.0015094 0.0052588 0.0027334 0.0095934 -0.00030192 -0.0055728 0.0080563 0.0067929 -0.0061147 -0.003529 -0.0069982 -0.0059689 -0.0095592 -0.0033078 0.0046245 -0.0080989 0.0014106 -0.0037525 -0.0051203 -0.0042535 -0.006624 -0.0017792 0.0098041 0.0067348 0.0097369 -0.008826 -0.0038028 -0.0032672 -0.00041207 -0.0031981 -0.0056589 0.0053179 0.001721 -0.0043298 -0.0082554 -0.0037674 0.0016962 0.0065093 0.005657 -0.0065409 -0.0048178 0.0033101 -0.0082559 -0.010064 0.0075431 -0.0078062 -0.00454 0.008886 -0.0076374 -0.0072407 -0.00016509 0.0018214 -0.0015338 0.0045231 -0.0026894 0.0078064 0.0098437 0.0075766 0.0051834 0.004947 -0.0013624 0.0009173 0.00030312 -0.0010642 0.0082299 -0.0054269 0.00043628 -0.008532 0.0045301 0.0059303 0.0065963 0.0071828 0.00071962 -0.0034926 0.0018891 0.0057264 0.0073966 0.009267 -0.009992 -0.0032541 -0.006574 -0.0025187 -0.0042458 0.00048796 6.643e-05 0.0037584 0.0052027 0.0083273 -0.00083124 -0.0090313 0.0047445 -0.0026951 1.5899e-05 
た 0.0081589 -0.007109 -0.0042789 -0.0011128 -0.0045667 -0.0098715 -0.0093477 0.0049987 -0.004509 -0.0050674 -0.0084818 -0.0033644 0.0066082 0.0052477 -0.0092662 0.0054741 -0.0031147 -0.0072932 0.0015195 0.0066173 -0.0013827 0.0075458 0.0099904 0.0077897 -0.0098227 0.0016092 0.0074408 0.0058039 0.0041475 0.0083726 -0.0063998 -0.0040595 -0.00025269 0.003483 -0.0017394 0.0093671 -0.0048731 -0.0080802 -0.004846 -0.004347 -0.0097921 -0.0074431 0.0022687 0.00077811 -0.0063129 -0.007951 0.0011751 0.0049276 0.0079036 0.0087788 -0.0016827 -0.0078979 -0.003756 0.0063177 0.005695 0.0092554 0.0096891 0.0048104 0.0014059 -0.0041078 -0.0001761 0.00010152 -0.0029245 -0.0012407 0.0085407 0.0038741 0.0085457 0.0020218 0.00078453 0.0097583 -0.0023071 0.0088859 -0.0067532 0.0048854 -0.0041831 0.0012895 0.0026199 -0.0070547 0.0065685 -0.0089489 -0.0020552 0.0047327 0.00019189 -0.0027782 0.0086043 0.006303 0.0035359 0.0033367 0.0020681 0.0088129 -0.00090426 -0.0028958 -0.010221 0.006982 0.0027166 0.0040293 -0.0096088 -0.00049283 -0.0025623 0.0022497 
用 -0.0064936 0.0074356 0.0062514 -0.004679 -0.0073323 -0.0081017 -0.0055365 -0.008432 0.00091943 8.9805e-05 0.004385 0.0072309 0.0017652 0.0087594 -0.0011466 -0.0040015 -0.0064551 0.0049175 -0.0002634 -0.0096869 -0.0028772 -0.0101 0.0033266 -0.0029939 -0.0086199 0.00093163 0.0041011 -0.0090094 0.0089753 0.0074139 -0.0074766 0.0036883 -0.0055119 0.0049181 0.0068442 0.003919 0.0072809 -0.0064921 -0.0019295 -0.0046742 -0.0061621 -0.0039966 0.00067314 -0.0032562 -0.0085881 0.00030021 -0.0058108 0.0097507 0.0037597 -0.0089063 -0.0031517 0.00024972 -0.0086068 -0.0090326 0.0020538 0.0076831 0.0067407 0.0089789 0.0096893 0.0061333 -0.0075446 -0.00013201 -0.0069864 -0.0076046 0.010227 -0.0010333 -0.00029525 -0.0077341 0.0087462 3.9856e-05 0.0055719 -0.0082775 0.0056291 0.003652 0.000569 0.0096441 -0.002842 -0.003239 -0.0079495 -0.0027017 -0.0069004 -0.00026335 0.0072315 -0.0077396 0.00023302 -0.0070763 0.0033431 -0.008113 0.0001102 0.004838 0.0030067 0.0046366 -0.007908 0.0032341 0.0091022 0.0072019 0.0076894 0.0013803 0.0066521 0.0058596 
C -0.0064529 0.010254 -0.0060442 0.0054872 0.0067062 -0.005683 0.0038879 -0.0075297 8.6254e-05 0.0040322 -0.0048388 -0.0024433 0.0050021 -0.0056904 -0.0056452 0.0035357 0.0016229 -0.0020509 -0.0039472 -0.0068075 -0.0089356 0.0047658 -0.0020767 -0.0022666 0.0060012 -0.0080529 0.0013525 0.0083909 -0.0032581 0.0089221 -0.0089114 -0.0056517 0.0024856 0.00067319 -0.010789 -0.0073701 0.009102 -0.0074804 0.0032991 0.0011532 -0.0037094 0.0055361 0.0062721 0.0071911 0.0016663 0.0061589 0.0080062 -0.0058823 -0.0023943 -0.0035501 0.0016293 -0.00039595 0.00093241 -0.0066929 -0.0063761 0.0037214 -0.0073753 0.0064012 0.0094782 0.0067911 0.0014705 0.0044556 -0.0079525 -0.0092899 -0.0092893 0.00087024 -0.0075411 0.0060986 -0.0092047 -0.0081695 -0.0096816 -0.0081722 0.0036718 -0.0072706 -0.0088815 0.0047775 -0.0088646 0.0019628 0.0095382 0.002926 -0.0058782 -0.0045644 -0.0038628 0.00014226 -0.0090748 -0.0025398 0.006148 0.0010964 0.0094993 0.009021 0.0081196 0.0031186 0.0034125 -0.0046284 0.008872 0.0072206 0.0026956 -0.0082262 -0.0021205 0.0029867 
でも 0.0023952 -0.0052139 0.0047355 -0.00090877 0.00042198 -0.0055058 -0.0032996 0.0090368 -0.00090413 -0.00051391 -0.0067268 -0.00065858 -0.0030405 0.001281 -0.0089585 0.0051117 -0.0028015 0.0068689 -0.002192 -0.0073869 0.0046892 -0.006764 0.0022967 0.0049182 -0.0034729 -0.006308 -0.0042661 0.0096773 0.0077754 -0.0036641 0.0074153 -0.005073 -0.00045879 -0.0016299 0.0055936 0.0078935 0.0096993 -0.0054094 -0.001255 -0.002917 0.0076611 0.0036217 -0.0035586 -0.0091761 -0.00080586 0.002416 0.007646 -0.0010127 0.0063483 -0.0048593 -0.0089919 -0.0064222 0.0032301 -0.0053773 0.00020799 6.6796e-05 0.0065608 -0.0067613 0.0093478 -0.0094234 0.0018926 -0.002385 0.0076453 0.010024 0.0019026 0.0062551 -0.005537 -0.0062762 0.0042309 0.0068187 0.0034209 -0.0017469 -0.0075657 0.0037453 -0.0036983 0.00285 -0.0074145 -0.0065138 -0.0096768 -0.0038033 0.0093243 0.0011909 0.006691 0.0063536 -0.0090893 -0.0058176 -0.0024805 0.0009082 0.0067279 0.0094245 -0.0083079 0.0048374 0.0049562 0.009803 0.0081234 -0.0096854 -0.0036095 0.0005158 -0.0062638 -0.006146 
販売 0.0013473 -0.006717 0.0038147 0.0072649 0.0052124 0.0064129 -0.0050516 -0.0039724 0.0025355 0.0049492 0.0023506 -0.0049055 0.0056954 0.0028995 -0.0021381 -0.0040201 0.0099483 0.0022769 -0.005443 -0.010237 -0.0042943 -0.0057607 0.0099208 -0.0061334 -0.0024791 0.0027607 -0.0075172 -0.0035702 0.0037126 0.0083431 0.0047516 -0.0093102 0.005002 0.0031859 -0.005719 0.0058566 -0.000846 -0.009101 0.0084016 0.0017981 0.003744 -0.0028838 0.0048751 0.0090482 0.0054916 -0.0099567 -0.0098925 -0.00055516 -0.0064555 0.0079887 0.0019227 -0.0085276 -0.0021878 0.008693 -0.0073059 0.0089402 -0.0037172 -0.0088609 -0.0015585 0.0075468 0.0095947 -0.0065196 -0.0068538 0.0015858 0.0017039 -0.0026442 -0.0096863 0.0019245 -0.0073375 -0.0095433 -0.0009019 0.0019666 -0.0051878 0.0053576 -0.0053519 0.0085974 0.0037928 -0.0068817 -0.0014103 -0.0079642 -0.00079851 -0.00032265 0.003418 -0.0097085 -0.0098575 -0.0048219 -0.0079071 0.0057934 -0.0019725 0.00018705 -0.0032027 -0.00078445 -0.0069925 -0.0054534 0.0018928 0.00095165 -0.0048253 -0.0070577 0.010154 -0.00061789 
Rails -0.0033233 0.0051234 0.0014652 -0.0084385 -0.0097097 0.0077713 0.0044005 0.0080539 0.0057518 -0.0050313 0.0068217 -0.003936 -0.00083117 -0.0022762 0.0087229 -0.0048785 -0.0080517 -0.0079724 0.0016505 0.0035156 -0.0081067 -0.0080573 0.0062439 0.0097046 0.0051684 -0.0051745 -0.0069297 0.0086836 0.0080982 0.0019419 -0.0040875 -0.0030236 0.00015176 0.008498 -0.0052391 0.0021434 0.0040819 0.0053344 0.0083123 -0.0075576 0.002869 0.0091906 -0.0057067 -0.0017695 0.0028814 -0.0079144 -0.005128 0.0027801 0.0055787 0.007722 -0.0022935 0.0018338 0.0021771 0.0035965 0.0042647 0.0059077 -0.008848 -0.0077677 -0.0067637 -0.01035 0.0017726 -0.008315 0.0094612 -0.0079064 -0.0033288 -0.0021647 -0.0056266 0.003907 -0.0046689 -0.0074326 0.0054203 0.0086985 0.0073416 0.006607 -0.0094071 0.0093681 -0.0001731 0.0053977 -0.0014094 -0.0083144 -0.0017846 -0.0017731 0.0026059 0.0051526 -0.00554 0.0083466 0.008968 -0.0027678 -0.0017855 0.0099983 -0.0059161 -0.0042454 -0.0021147 0.0082761 0.0009749 0.0056044 -0.0021267 0.0093243 -0.0065436 0.0077963 
処理 0.0022125 0.003644 -0.0067269 -0.0043571 0.0010992 -0.00068318 0.0062596 0.0060579 0.002633 -9.971e-05 -0.0064001 -0.00084684 0.0063881 0.0060013 0.0079716 0.00039546 -0.0019983 -0.0098721 -0.0046826 0.00074399 -0.0033845 0.00087396 0.007509 0.0038775 0.001656 0.0044329 0.0010414 0.0089125 -0.0028073 -0.007702 0.0040701 -0.0044041 0.0043659 0.010108 -0.0077153 -0.001336 0.008129 0.0086394 -0.0061472 -0.0026328 0.0010516 -0.0078193 0.0067216 -0.0075825 0.0094978 -0.0067234 -0.0064977 0.0072194 -0.0064089 -0.006093 0.00093638 -0.0056876 0.0072021 0.0040818 0.009527 -0.0073317 0.0029841 -0.006676 -0.0058034 0.0045483 0.0096676 -0.0046714 0.0040985 -0.0078245 0.0025498 0.00098235 -0.0056269 0.0056167 0.0082729 -0.0068368 0.0057164 -0.0084613 0.0015104 -0.009509 -0.009264 -0.00082323 0.0059253 -0.0039604 0.0065413 -0.0032159 -1.8002e-05 -0.0027625 -0.00051369 -0.0061129 -0.0033334 0.0067788 -0.0046614 -0.004829 -0.0079558 -0.0022454 -0.0021997 -0.003596 0.0011292 0.0016861 -0.0057995 -0.0098505 -0.0024245 0.0060003 -0.0040233 0.00072626 
へ -0.0038062 0.0090137 0.00032662 -0.0023729 -0.009335 -0.0081083 -0.0023594 0.0057751 0.0051546 -0.0013933 0.0042602 0.0057325 0.0021415 0.0016255 0.0075752 -0.0061649 0.009605 -0.00069332 -0.009702 0.0018711 -0.0040622 -0.0018673 -0.0037732 0.0063737 -0.0013707 0.0038456 0.0050682 0.0046313 -0.0013087 0.002492 -0.0019037 0.0083226 -0.0058188 -0.0086597 -0.0053289 -0.0082128 0.0054989 -0.00073213 0.0075533 0.0048015 -0.0077753 -0.0031604 -0.0022753 -0.0090215 -0.00036252 0.0084156 0.0074274 -0.0099157 -0.0067144 -0.0038668 0.00020103 -0.0025735 0.0087564 -0.0068333 0.0077792 -0.0049396 0.0062457 -0.0030962 0.0081967 -0.0098874 0.0078358 0.0044422 0.0052292 -0.00096287 0.0043653 0.0086816 -0.0091391 0.0099871 0.0089044 0.00017003 -0.0031717 0.008889 0.009781 0.00050995 0.0086956 0.003577 0.00033459 -0.0052075 -0.0051699 -0.0081806 -0.0086451 0.0025623 -0.0075382 0.0095536 -0.0084839 -0.0027658 -0.00078921 -0.00582 0.0036793 0.0058733 0.006149 -0.0039161 -0.0058716 -0.00056908 0.0046292 0.0080534 -0.0012708 -0.0095872 -0.0016426 0.0025104 
初心者 -0.00084526 -0.0015408 -0.0017573 -0.0010524 0.0024891 0.0023325 -0.0091203 -0.0040879 0.0023799 0.005348 0.0072412 0.0064348 0.0069776 -0.0055828 -0.0049543 -0.0075584 0.0089948 0.0043738 -0.0075079 -0.0067435 -0.0009056 -0.0028202 -0.0099906 -0.0071233 0.0096013 -0.0083826 0.0089413 0.0005638 0.0064493 0.00042992 0.00022284 0.0072605 0.0056891 0.0038082 0.0080117 0.00061343 0.0072044 0.0037014 0.0092018 0.0091485 0.0029876 0.0091559 0.0067239 -0.0076684 0.00096344 -0.0011071 -0.0031647 -0.0017433 0.0099461 0.0098012 0.0043812 -0.003263 -0.0011514 0.0033634 0.0066434 0.0097324 0.00018802 -0.0093029 0.0088192 0.0085078 0.0043828 0.0033844 0.0030415 0.0078239 3.209e-05 -0.0015633 0.0063134 -0.0023927 0.0076431 -0.0030126 0.0079438 -0.0075747 -0.0090775 0.005954 -0.0088339 0.00041199 -0.0054217 -0.010042 -0.0086853 0.0020384 0.0028294 -0.0023805 0.0093573 0.0090904 -0.006957 -0.00030591 0.00058403 0.007864 -0.0093608 0.0067163 0.0048959 -0.0082932 -0.0076351 -0.0024763 -0.0045557 -0.0057556 0.00068467 0.001006 0.0042047 -0.0059965 
】 -0.0071565 0.003579 -0.00072878 0.0073443 -0.0013139 -0.0089409 -0.0089117 0.0061214 -0.0036107 -0.0087183 0.0096581 0.0084072 -0.0053918 0.0089372 -0.0097001 -0.0073215 0.0005231 0.0044165 -0.00030922 0.0079109 -0.0049865 -0.0092055 -0.0017251 0.0077398 -0.00084359 -0.0092834 -0.00010945 -0.0071615 -0.003188 -0.0005848 -0.00046928 -0.0096183 0.0072339 0.0010768 -0.0034234 0.0077945 -0.0053666 0.0075035 0.00032494 0.0043101 -0.0097764 0.0048976 0.00622 -0.0066086 0.0015908 -0.0084529 0.0066132 -0.0055484 -0.0080705 0.0085615 0.0015535 -0.0042754 0.0034036 0.0028065 0.0026172 0.0057045 -0.0098295 0.0090475 -0.0011461 -0.0012079 0.0015851 -0.0018111 -0.0002777 -0.00056439 0.0022045 0.0040283 0.0034036 0.0034934 0.0059103 -0.0015596 0.0068624 0.0055412 0.0090775 -0.0012381 0.0039471 0.0017653 0.0043025 -0.0071373 0.0017497 -0.0054255 0.00149 0.0060585 0.0080777 0.0076447 0.0075504 -0.00036554 -0.0069907 -0.0015087 0.0058912 -0.0041547 0.0091265 -0.0063229 0.0086905 0.00024838 -0.0083028 0.0050498 0.0021668 0.0028195 -0.0060847 -0.0091417 
Java 0.0052552 0.0022525 -0.0049016 -0.007072 -0.0050065 0.0046484 -0.00092252 -0.00049403 -0.006498 -0.0012652 0.0022127 0.0080466 0.0023331 0.002875 0.0017489 -0.0064449 -0.0011987 0.0022377 0.0095901 -0.0032012 -0.0026035 -0.0091491 0.0070407 -0.0027906 -0.0031419 -0.010133 -0.0017967 -0.0031783 0.0084036 0.0068538 0.0053473 0.0047091 -0.000662 0.00061354 0.0042613 0.0053975 0.0049718 0.0080301 -0.010018 -0.0082544 0.0026479 0.0096712 -0.0089716 0.0060539 0.0030527 0.0058935 0.0064585 0.0032724 0.0066839 0.00942 -0.0041065 -0.006425 0.00054979 0.0094426 -0.0018291 0.0028149 0.0050006 0.0083833 0.0068072 0.0035428 0.0061763 0.0067769 0.0068659 -0.001178 0.0020979 0.0023436 0.00015039 0.00041094 -0.0080953 -0.0074977 0.0019812 -0.0039126 -0.0023029 -0.0054014 -0.0072275 -0.0001613 0.0075824 -0.0018464 -0.0093301 -0.0084809 0.0032763 0.00093526 0.0020611 -0.0072464 -0.0090862 -0.0011979 0.0051937 0.006492 0.0081401 0.0004533 -0.0024806 -0.00020044 0.0091962 -0.0086132 -0.0031248 -0.0084876 0.0042916 -0.005451 0.0042636 0.004635 
ハッカー 0.0096933 -0.0050956 0.0047611 0.0083152 0.0053879 -0.0039637 0.0043389 0.0072978 0.00103 0.0018174 -0.0041505 0.0097875 0.0055904 -0.0061205 0.0087605 0.0014961 -0.0058185 0.008039 -0.001503 0.0028019 0.0072757 -0.0088463 0.0065545 0.00029882 0.0034188 -0.005157 0.0050156 0.0050793 0.0043812 -0.0072496 0.00030465 -0.00057135 0.0054662 0.0097762 0.0048555 0.0062484 0.0014552 -0.0032773 -0.0064232 -0.0060162 -3.6796e-05 0.0081275 0.0028852 -0.0085612 0.0069791 -0.0054433 0.0084961 0.0066649 0.0048603 0.0015062 -0.00067508 0.0038089 0.0022457 0.0056442 0.0057171 -0.008241 0.0092339 -0.0040395 -0.0024316 -0.0068098 -0.0015137 -0.0083688 0.0074798 0.00056244 -0.0040175 0.0081715 -0.006431 0.00064199 0.0015261 -0.0089872 0.0055966 -0.0046729 -0.00045187 -0.0083106 0.0060215 -0.0031045 0.0012008 0.0025301 0.0019686 -0.0072496 0.0080756 -0.0092355 0.0025018 -0.0054919 0.0071865 -0.0071636 0.0011606 -0.0028439 -0.0035891 -0.0061713 -0.0019861 -0.0072838 0.0053318 0.0038899 0.0099046 0.0054905 -0.0063182 -0.0055457 0.0013741 -0.00035369 
ご -0.0023964 0.0090755 -0.0045499 -0.0023417 -0.0052826 0.006093 -0.0061467 0.0095571 0.0041871 -0.0087064 0.0035605 -0.0052758 -0.0083764 0.0010222 -0.0030408 -0.0065033 0.0091599 -0.0087372 0.0029588 0.0087575 -0.0032467 -0.006638 -0.0080944 0.0072911 0.0063443 0.0073984 0.0027422 -0.0098925 0.0050634 -0.003982 0.0086031 -0.0077328 -0.0099764 -0.0020458 -0.0070546 -0.00042542 -0.0023252 0.0033535 -0.006418 0.00793 0.0060027 -0.008359 -0.0083356 -0.0075886 0.0075797 0.010021 0.0075793 -0.0057665 -0.0043151 -0.0034727 -0.0082172 0.00012689 -0.0045064 0.010018 -0.0059157 -0.0011917 0.00697 0.002986 -0.0049055 -0.0086425 0.0067637 -0.0047527 -0.0079439 0.0014638 3.0892e-05 -0.0075273 0.0013715 -0.0038356 0.0025053 -0.0028662 -0.0054782 -0.0074148 0.0049378 -0.0073873 -0.009358 0.00048768 0.008552 -0.0052077 -0.0093886 0.0050542 0.009 -0.0099316 -0.0015485 0.00026558 0.0039509 0.005136 0.0078086 0.0017174 -0.0071408 -2.5013e-07 0.0051688 0.0099138 -0.0016618 -0.0029528 0.0048489 0.00056616 -0.00086699 0.0102 -0.0078255 -0.0018847 
スクリプト 0.0023422 0.0088221 0.0082746 0.0067733 0.0080162 -0.0089888 -4.6551e-05 -0.005382 0.0066409 0.00023468 -0.0033604 0.0056089 -0.0095589 0.0099703 -0.0024387 0.0044474 -0.0022395 0.0019141 0.0089766 -0.00088105 -0.0082248 -0.0097817 0.00079136 -0.0089165 -0.0048188 0.0065639 -0.0049993 0.0090069 0.0046126 -0.0063815 -0.008768 0.0091536 -0.0050332 0.0087279 0.0022091 0.00058745 -0.0035034 -0.0083248 -0.008376 0.0064982 2.9467e-05 0.0062994 -0.007041 -0.0048811 -0.0057891 -0.0010594 -0.00031774 0.0050607 0.0097666 0.001699 -0.0011699 -0.0030161 0.00016277 0.0092515 0.007521 0.0011432 -0.0027645 0.0057121 -0.010179 0.0048043 0.0054071 0.0098773 -0.0063782 0.0019544 -0.0032842 0.0097342 -0.0032938 -0.0038762 0.00848 -0.00024182 0.0082268 -0.0026463 -0.0014203 0.0062368 0.0040303 0.0089378 0.0086554 -0.0051174 -0.0016881 -6.7142e-05 -0.00013373 -0.0075847 -0.0027662 0.0014732 8.8108e-05 0.0094012 -0.0014718 0.0022614 -0.0099619 -0.00062337 -0.0084878 0.0084777 0.00024751 0.0091493 0.0014686 0.0022492 0.0036498 -0.0099208 0.0074619 -0.0081791 
不問 0.0028948 -0.0063885 0.0028874 -0.0064517 -0.0096138 0.0081848 0.0075513 0.0048383 0.0073679 -0.0025429 -0.010158 -0.006409 -0.00056605 -0.0012127 -0.0010525 -0.0055058 0.0087551 -0.0022149 0.0039611 0.004441 -0.010088 0.0021943 0.010069 -0.0049108 -0.0028107 -0.00683 -0.0071623 0.0039134 -0.0038101 0.0057483 0.0064776 0.0049719 0.0065841 0.0039881 -0.0060167 0.0088974 -0.0031235 0.0081695 -0.0018808 -0.0081352 0.0065885 0.0029196 -0.0010801 0.0098095 0.0063566 -0.0025787 -0.0010229 -0.0057551 0.0059657 -0.0088606 -0.0040388 0.0088684 0.0077037 -0.0087633 0.0083257 0.0069138 -0.00015045 -0.0011316 0.0010103 0.0036837 -0.0012775 -0.0087267 -0.0090821 -0.0031238 -0.0017022 -0.0013927 0.00019345 -0.0032307 0.0078878 -0.005985 -0.0081683 0.0038755 -0.0085502 0.0033322 0.0095875 0.0065824 0.0026543 -0.002577 0.0024179 -0.0016572 -0.0044754 -0.0024861 -0.0044862 0.0075811 0.0091627 -0.0023115 -0.0047272 0.0050651 0.0033684 0.0089452 0.0063685 0.0071154 0.0030565 -0.0074292 -0.0060028 0.0061909 -0.0044838 -0.0087248 -0.00026576 0.0055108 
サービス 0.0071368 -0.0069845 -0.00034834 -0.0014515 0.00023631 -0.0016558 -0.0058764 -0.00054686 -0.0014276 0.0069483 0.0066305 0.0061802 0.0045745 -0.0045252 -0.0076127 -0.0081766 0.0095741 0.0037417 -0.0075148 -0.0036458 0.0064104 -0.010107 -0.0072119 0.0054289 0.0011077 0.0071008 -0.0049284 -0.00039457 -0.0036914 0.00048529 -0.0092693 -0.0059501 -0.0042685 -0.0076693 0.0086279 -0.00057256 -0.0036574 -0.010002 -0.0066975 0.0010727 -0.0070115 0.0086211 -0.00050364 -0.0091208 0.0023957 0.0067598 -0.0077622 0.0066582 0.0016548 -0.008227 0.0022494 0.0078511 -0.0033709 -0.00014747 0.0041341 0.009501 -0.010007 0.0078324 0.0068309 0.0052893 -0.0050251 -0.0063871 0.0085181 0.0024815 -0.0075265 -0.0094092 0.0017842 0.0031815 0.0044357 -0.0080578 0.0030835 -0.0032826 -0.006631 0.0010569 0.0074233 -0.0021745 0.0059537 0.0017624 0.0024029 -0.0008931 -0.00018238 0.0095871 0.005729 -0.0034214 -0.0066545 0.0029162 -0.0032369 0.0065046 0.0075691 -0.0025794 0.0053282 0.0081877 0.0058414 -0.0067322 0.0066209 -0.0048936 0.0060462 0.0098749 -0.0025567 0.0050389 
レッスン 0.0040092 0.0073481 -0.0097996 0.0047439 0.0089347 -0.00057235 0.0053431 -0.0039939 -0.0020996 -0.0053437 0.009364 0.0053521 0.00098814 0.0016731 0.0095693 0.003748 0.0040739 0.006185 0.0055283 0.000963 0.0030501 0.0019245 -0.0019244 0.0092 -0.008189 0.0050018 -0.002976 0.0012143 -0.0069656 0.0010449 -0.00259 -0.0041054 0.0060907 -0.0068483 0.0079225 0.0067647 -0.00044731 0.009862 0.00087891 0.0023542 -0.0073665 0.0035655 -0.001611 0.007552 -0.0047281 -0.0001281 -0.0073439 0.0044944 -0.0034462 -0.0063058 -0.0021213 0.0034264 -0.00463 0.0097544 0.00063098 -0.0046712 0.0092907 -0.0051838 -0.006137 0.0083042 -0.0044664 0.0030465 0.0051672 -0.007054 0.0053394 0.009651 -0.008786 0.0060222 0.0029292 0.0077702 -0.00032208 -0.0064315 0.0098853 0.003963 -0.0095161 0.004454 -0.0056551 0.0041162 -7.5177e-07 0.0044484 0.0020888 0.0023056 0.0020231 -0.0080827 -0.0079513 0.0050518 0.00047682 -0.0092285 -0.0058604 -0.0089581 -0.0078809 -0.0005161 -0.0080629 0.0088275 -0.0055239 -0.0085611 0.0093313 -0.0027833 -0.010181 -0.0043632 
Web -0.007758 0.0083508 -0.0035772 -0.0097207 0.0081441 -0.009313 -0.0019397 0.0041173 0.0035736 0.0056419 -0.0038069 0.0033622 -0.0013814 -0.0095676 -0.0065161 -0.00031302 -0.0055975 0.0049818 0.00025007 -0.0050754 0.00067895 -0.0071311 0.0030416 -0.0092869 -0.0061729 0.002265 0.003596 0.0047299 -0.0016513 -0.0017099 -0.0066385 -0.0061149 -0.0078156 0.0029222 0.0017437 0.0018883 0.0044229 0.0059128 -0.0040466 0.00028297 -0.0019453 0.0043086 0.0044186 0.0034393 0.0041911 0.0035218 -0.0053628 0.0088856 -0.008285 0.003899 0.0050011 -0.0030887 -0.0048703 -0.0067327 -0.0069782 -0.003048 -0.0077947 -0.0037495 0.0032855 0.007911 0.0011985 0.0010809 -0.0061667 0.00081739 0.009255 -0.0029514 -0.0039102 0.0099802 -0.0078484 -0.0044951 -0.0073172 -0.0017891 0.0020801 -0.0058466 0.0012749 0.0033474 -0.0010533 0.0096969 -0.0090049 -0.0033689 -0.0060197 -0.0025599 0.0094662 -0.0098828 -0.0051852 -0.0063861 -0.0035285 -0.0034149 -0.0057493 0.0082259 -0.0002916 0.0046197 0.0040029 0.009206 -0.0062319 -0.0020307 0.0038053 0.0066645 0.002341 0.0076931 
作業 0.0011904 -0.0073182 -0.0011984 -0.0092721 -0.0072838 -0.0051863 0.0078269 -0.0055665 0.0098238 -0.0099569 0.00227 0.0060399 0.0030214 -0.0071868 -0.00095951 -0.0031491 -0.0093078 0.0069762 -0.0049679 0.0024786 -0.0033377 -0.0070953 0.008302 0.0098501 -0.00051956 0.0067944 0.0077752 -0.0024302 0.00867 0.0095887 0.0071882 -0.0012504 0.0053712 -0.0087783 0.0095169 -0.0056085 -0.0096128 0.0072386 -0.00013009 -0.0044653 0.008962 0.0093821 -0.0047514 0.004696 -0.0084351 -0.0055438 0.0045601 -0.0067063 0.0042305 0.0062174 -0.0030489 -0.00054092 -0.0020482 0.0071246 -0.0089059 0.0034579 -0.01009 0.0012981 0.0011623 0.0094439 0.0072262 0.0093206 -0.0072728 -0.0082342 0.0026726 0.0099415 0.008935 -0.0078573 0.0095857 -0.0081466 0.00047776 0.0063948 0.00090492 0.0009871 0.0037493 -0.0066717 0.0030479 0.0079194 -0.0019816 0.0099677 0.0062993 -0.0022458 -0.0090016 -0.0062852 -0.0084953 -0.00010389 -0.00084943 -0.00044068 0.0035769 0.004381 0.0079065 0.0041996 -0.0034715 -0.0035181 -0.0036504 -0.0054658 -0.003362 -0.0091019 0.0093269 -0.0082675 
承り -0.0047381 0.00082464 -0.0057891 -0.0068552 -0.0054504 0.0043058 0.00018589 -0.0044511 0.0039113 0.00022558 0.0030923 0.0097042 0.010231 0.0028164 0.0087024 0.0055827 0.0085702 -0.0097458 -0.0037866 -0.0011863 0.0095555 0.0064987 -0.00015274 0.0033463 -0.0040245 0.0099575 -0.0067952 0.0085137 0.0026431 0.0025908 -0.0052909 -0.0086244 -0.0028391 0.00021173 -0.00092953 -0.0025869 -0.0067961 0.00091581 0.0045383 0.0097873 -0.0040428 0.0083712 -0.0080803 0.0084029 0.0027791 -0.0018738 -0.0045409 -0.005026 0.0016888 0.0050921 -0.0037557 -0.00087017 5.3238e-06 0.0015683 -0.0089941 0.0068002 -0.001236 -0.00308 -0.0099909 -0.0072936 0.0035974 0.0026757 0.0014618 0.0071548 0.0080803 0.0074332 0.0064658 0.0074906 -0.0080517 -0.00091414 0.008524 -0.00022098 0.0039878 -0.0088557 -0.0063797 0.0083362 -0.001348 0.00090563 -0.00095255 -0.0095813 0.0050308 0.00042155 0.005969 -0.0036829 -0.00032249 0.0062578 0.0045961 0.010055 -0.0083035 0.0086593 -0.0053961 0.010021 -0.0031983 -0.00081851 -0.0063724 0.0018134 0.0094751 -0.0017839 0.0045142 -0.0040833 
情報 -0.00098098 0.00057153 0.0020754 0.0071808 -0.0052808 0.0040269 0.0043588 -0.00048862 -0.0019123 -0.0053343 0.0033293 0.0030952 -0.0057163 0.0046371 -0.00064138 0.0099624 -0.0051694 -0.0081657 0.0068882 -0.0011449 -0.0010309 -0.0049465 -0.0015072 -7.4068e-05 0.005551 0.0026929 0.0043367 0.0070767 -0.003434 -0.0057974 -0.0019649 -0.0025353 0.0029643 -0.0017719 0.0074916 -0.0019453 -0.0047278 0.003465 0.004399 0.0012478 0.0088592 0.0095593 0.0095384 0.009763 -0.006565 -0.0011446 -0.0021193 0.00079836 0.0024441 0.0071184 -0.0063592 0.0065386 -0.0038533 0.0061301 -0.0056181 -0.0094104 -0.00077903 -0.0015425 0.008019 0.0097733 -0.0018929 -0.0095826 0.0024268 -0.0072385 -0.0070823 -0.0047652 -0.0065599 -0.0022584 -0.0021886 0.0059888 -0.0011588 0.0061005 -0.0035323 -0.0073036 0.0076994 0.0060937 0.0096171 -0.0043855 0.0063877 -0.0066593 -0.0046819 0.0092065 0.0041823 -0.0067354 -0.0060275 0.0067579 0.010056 0.0072851 -0.0073055 0.003085 -0.00028765 0.0082512 0.0054593 -0.0059356 -0.0080282 0.00064378 -0.0067662 -0.00133 0.0081564 0.0055225 
学生 -0.0034644 -0.0075984 -0.0017748 0.0064014 0.0016861 0.0059829 -0.0096924 0.0042687 0.0011395 -0.0091094 -0.0084256 -0.0052566 0.00066297 0.0031741 0.0082632 0.0092351 0.0060068 0.0086318 -0.0082894 -0.006747 -0.0031959 -0.0048284 -0.00089179 -0.009921 -0.0010329 -0.0071657 0.0015972 -0.0018159 -0.0083277 -0.0066774 0.0054833 -0.0010514 0.0048501 0.0078858 0.0022017 0.0047302 -0.0062314 -0.0021798 0.0057524 -0.00089316 -0.002569 -0.0058425 -0.00073507 0.0091805 0.00035132 0.0078277 0.0092798 -0.0052033 0.0019393 -0.001646 -0.0070243 -0.0016441 -0.010144 0.0071071 -0.0017012 -0.0048131 0.0074173 0.0053705 -0.0052432 0.0045764 0.006626 -0.0066435 -0.0040143 -0.0036596 -0.0063566 -0.0017045 -0.0074944 -0.0053556 0.00017003 0.0052682 0.0023925 -0.0018634 -0.0048233 0.0006822 0.0012912 -0.0070697 0.00021178 0.0071956 0.0052419 -0.0014713 -0.0020462 -0.0073235 -0.00025998 0.0090679 -0.0062523 -0.0045157 0.0025166 -0.0024464 0.0017644 0.0064064 0.0042263 0.010224 -0.0032227 -0.0038593 -0.0044403 0.01006 -0.0067981 -0.0054526 0.0027016 -0.0072255 
サイト 0.0032086 0.0066099 0.0096464 -0.0038713 -0.0065327 0.0045754 0.0062349 -0.0019968 -0.0094964 -0.0042318 0.0076212 0.0091328 0.0059929 0.0029418 -0.0022599 -0.0072835 0.0016057 -0.0061369 0.0068462 0.0020687 -0.0040832 0.0045077 -0.0025337 -0.0037879 0.00019523 -0.0074207 -0.005112 -0.0077895 -0.0049161 -0.0017625 -0.0041793 0.0010149 -0.0055926 -0.0020009 0.0047388 -0.0083745 -0.0059928 -0.0078923 0.0098897 0.0064308 -0.0095715 0.00029749 0.0068039 0.00044084 0.0011051 -0.0041646 0.0011348 -0.0016608 -0.0095672 -0.0081188 -0.0089265 0.0097765 5.5335e-05 0.0052382 -0.0084489 0.00029984 -0.0049158 -0.0064189 0.002833 0.0020438 0.0094448 0.0044199 0.0013215 -0.0088363 -0.0036007 0.0093982 0.0035774 -0.0018176 0.0040021 0.0088415 0.0080584 0.0098842 0.0082764 0.0013831 0.0078027 -0.0049417 0.0093825 0.0021998 -0.0051789 -0.0047462 0.0097575 -0.0021565 0.001254 0.0010128 0.010189 -0.0048521 0.0089625 -0.0065461 -0.0077879 0.0023899 -0.0063898 -0.0011187 0.0067908 0.0039302 -0.0021801 -0.0083442 -0.0079651 0.0056835 -0.0042552 0.0075924 
自動 -0.0051171 0.0026219 -0.002779 0.0065303 0.0078754 0.0064675 0.0044711 -0.0058737 0.0029546 0.0014239 -0.0010333 -0.0021763 -0.0050614 -0.0093275 -0.0024552 0.0091102 0.0003403 -0.00046582 0.0080728 -0.0063482 -0.0023104 -0.0082281 -0.0013207 -0.0094148 -0.0050099 0.00356 -0.0041683 0.00068986 0.0039624 0.010117 0.0034868 0.00039687 0.0025829 -0.0012736 0.0089415 -0.0025337 0.00058903 -0.0091727 0.0019311 -0.0091392 -0.0086806 0.0010797 -0.00036351 0.0077061 0.0075051 0.0012545 0.0048102 -0.0056275 -0.0053251 -0.0062743 -0.009045 -0.0077842 -0.0067426 -0.001679 0.0023598 -0.0039478 -0.0015388 0.0034635 -0.0022073 0.0099999 -0.00099948 0.0044325 4.8096e-05 0.0003481 -0.0078844 0.0027198 -0.0067383 0.0058478 0.00063974 0.0073233 -0.0096626 0.0064732 0.006915 -0.005929 -0.0095277 -0.0019717 -0.0074411 0.0045045 0.0048269 -0.0040338 -0.0080752 0.0078495 0.0065952 0.0041909 0.0027263 -0.0022609 0.009937 0.002281 0.0055648 -0.0086656 -0.0099375 -0.0025148 0.00023123 0.0034127 0.0039714 -0.00082037 0.0066496 -0.0020811 -0.0069193 0.0017278 
宿題 0.0051239 -0.0012873 -0.0098616 -0.0051493 0.0072051 -0.0020838 -0.0071941 -0.0064302 0.00092379 -0.0049529 0.0099867 0.0059576 -0.0070106 -0.0076263 -0.0079388 -0.0071964 0.00113 -0.00023116 -0.007349 0.0021522 -0.0028586 -0.0012609 -0.0040817 0.003696 0.0023514 -0.0085738 -0.0041085 -0.0032685 0.0027158 -0.0010391 0.008359 -0.0073708 -0.0021179 0.0049917 -0.0023472 0.0003503 -0.0046185 -0.0045845 -0.0088106 -0.0049947 0.0031789 0.0076253 -0.0016047 0.0040468 0.009327 0.0046753 -0.0020668 0.0036997 0.0089135 -0.0074244 -0.0041297 -0.009049 0.0097192 0.0063124 0.0016768 0.00056936 -0.0056905 0.003419 0.0022333 0.0032232 0.00045168 0.0034172 0.0070239 0.006877 -0.0029798 -0.0087947 -0.0033434 -0.0045811 -0.0094752 0.0047502 0.0018637 -0.00020279 0.0017575 0.0020871 0.0069034 -0.0045559 -0.0075185 0.003854 0.0054782 0.0079584 0.0057705 -0.0021829 0.0031578 -0.0039309 -0.0073368 -0.0042115 -0.0045054 0.0077106 -0.006088 0.0008018 0.0070131 -0.0013205 -0.0035005 -0.0094043 -0.004122 -0.008043 -0.009599 -0.0037949 -0.0039422 -0.0021591 
疑問 -0.0052022 -0.0012603 -0.0071039 0.00081866 0.0061224 0.009489 -0.0018404 -0.0036776 -0.0015346 -0.0087297 -0.0042996 -0.0086187 0.0092164 0.002656 -0.0017014 -0.0049459 -0.003083 -0.0070104 0.0031445 0.0064523 0.001159 0.010399 -0.00053385 0.003155 0.0031426 -0.0015238 -0.0050379 -0.0012263 0.0060112 0.0075713 -0.0059034 0.0052269 0.0030582 -0.0052851 -0.001218 0.0092772 0.0070572 -0.0082777 -0.0093083 0.0086117 0.00098001 -0.0039939 -0.0081944 0.0080513 -0.0068329 0.00061674 -0.00371 0.0025905 -0.0082269 -0.0082013 0.0056227 0.0010939 -0.0056857 0.00026618 0.004716 0.00046971 0.0058917 0.0022354 -0.0051608 -0.0076007 -0.010105 0.0088655 0.00055367 0.009441 -0.0077839 0.0091684 0.0064324 0.0069709 -0.00032826 -0.01017 4.065e-05 -9.2572e-05 0.0035612 0.0062228 -0.0072812 -0.0066365 0.0077524 -0.0015813 -0.0086814 0.0085121 0.0042275 -0.0028362 0.0007935 0.0035059 0.0094704 0.0048185 0.0035235 -0.0066898 -0.0032954 -0.0017861 -0.0046053 -0.0019208 0.003547 -0.00042174 -0.0040126 0.00434 0.0069251 -0.0070207 0.0038877 0.0014664 
データ -0.0057197 -0.0091698 0.0015909 0.0043514 0.0058802 0.0023012 0.00059291 0.0085833 -0.0066429 -0.0061968 0.0032078 -0.004604 -0.0097434 0.0054038 -0.0060418 0.0019747 0.0057115 -0.0077682 -0.0084437 0.0020857 0.004807 0.0096257 -0.0064383 0.0077641 -0.0014566 -0.0061918 0.0096818 0.0075567 0.0087043 -0.0033924 -0.0033176 -0.0060653 0.0014174 -0.0067786 -0.0084552 0.0076726 0.0019553 -0.0080586 0.0049002 -0.0068626 0.0095646 0.0091841 -0.0041539 -0.0028465 -0.0051456 -0.0066616 -0.0036543 0.0039221 0.0050673 0.0078817 -0.009432 0.0020658 -0.003568 -0.0085241 0.0075667 -0.0060552 -0.0067694 0.0020905 0.0022279 0.0018726 0.0079798 0.0097075 0.0055601 -0.0056129 -0.00022069 0.0029793 -0.0072641 0.0030901 -0.0019552 -0.00066339 0.0042652 -0.0057089 -0.0028718 0.0022279 -0.003437 0.0081227 0.006732 0.0041937 -0.0018793 0.00067055 0.0026259 0.0084101 0.0068449 -0.0063896 0.0083393 -0.0031611 0.0046053 0.00021259 -0.0015523 -6.244e-07 -0.0066285 0.0071348 0.009803 -0.0095088 0.0016962 -0.0055275 -0.0040701 0.0078388 0.0072233 -0.0013659 
解決 0.0038967 0.0037982 -0.0048444 -0.0076954 -6.5225e-05 -0.0087774 0.0076829 0.0066202 -0.00022782 0.0054507 -0.0039367 -0.0070944 -0.0078482 -0.0056734 0.00251 0.0039687 -0.0078655 0.0091388 0.0079908 0.0003382 0.0071227 -0.0039102 0.0074423 0.0058293 -0.004264 0.0017908 0.008233 0.0020604 0.0067018 -0.0050504 0.00053074 0.00013209 -0.009035 -0.0057541 0.0064059 -0.0019498 0.0087948 0.0038301 0.0039474 -0.006692 -0.005601 -0.0085264 -0.00029304 -0.0039556 -0.0064955 -0.0035018 -0.0080901 0.0064348 0.0068636 0.0042451 -0.0077299 0.00044604 -0.0081731 -0.0092491 0.0034969 -0.0049734 0.00070681 0.010028 0.0042385 -0.0045108 -0.0018957 0.0068287 0.0057386 -0.0044492 0.0097607 0.0097614 -0.0024538 0.0085777 -0.0096646 0.0038904 0.0090621 -0.002149 -0.0065356 0.0088754 -0.0091102 0.0059633 0.0069591 0.0085414 0.0031544 -0.0033285 0.0088884 -0.0035574 -0.0094186 -0.002382 0.0038331 -0.0027753 -0.005658 0.0069489 -0.0021044 -0.0011051 0.0072717 -0.0020242 -0.0066449 -0.0017931 -0.00096983 -0.002144 0.0060793 0.0085658 0.00035595 -0.0092385 
# -0.0048109 0.0012003 -0.0055173 -0.0057123 -0.006535 0.0052742 -0.0034698 -0.0049657 0.0077187 0.0040519 -0.0047315 0.008319 0.0036304 0.0089729 -0.00086303 0.0014935 0.0051172 -0.0077943 0.0079919 -0.0082824 -0.0070596 0.005942 0.0047232 0.0068413 -0.0048174 0.0085131 -0.0009883 0.0048502 -0.0026286 0.0048385 0.0079296 -0.0027274 0.0078971 0.0070542 0.0032442 0.0045594 0.0022385 0.00875 -0.0029532 0.00090353 -0.0037568 -0.0057591 -0.0088935 0.0092006 -0.0049653 -0.0046197 0.0078663 0.0083768 -0.004452 -0.0016204 -0.0081702 -0.007795 -0.0087691 0.0038994 -0.0056406 0.0029189 0.0092414 -0.00736 -0.0044484 -0.0018514 0.0024261 -0.0055494 -0.0058755 0.003599 0.0090977 -0.0043194 -0.0055577 0.0029331 -0.004084 0.0091719 0.0020748 -0.0072394 0.0054481 -0.0039018 -0.0012079 -0.0020271 0.0091125 0.0054821 -5.0464e-05 0.0066329 0.0082467 -0.0044512 -0.0085147 0.00026028 0.0016509 0.00081491 -0.0090938 0.00039125 -0.0067545 -0.0001143 0.009508 0.00031116 0.0042833 0.00056008 -0.0037393 0.0058978 9.4899e-05 -0.0047801 -0.0030524 0.0065957 
方 0.0043417 -0.0010047 0.0072792 0.0099947 0.002752 -0.0088629 -0.0062651 0.0070397 0.0060494 0.0043507 -0.0033438 -0.0074697 -0.0075586 -0.0025638 -0.0090549 0.0017667 -0.0039137 0.0098051 0.0066127 0.0087201 -0.0015675 -0.0022974 0.0074818 0.0098472 0.0025916 0.0024319 0.0019656 0.0014379 -0.003334 -0.0069058 -0.0025506 0.00082049 -0.0081318 0.0041478 -0.0075017 -0.0051641 -0.0030895 0.0050853 -0.0056388 -0.0015479 -0.0094273 -0.0094252 -0.009931 0.0010607 0.0047557 0.0068452 0.0093352 -0.0034846 0.0017017 -0.0090085 0.0061538 0.00077283 0.0066282 0.0042321 -0.0033881 0.0056988 -0.0060477 0.0085185 -0.0090245 0.0040695 0.0042089 0.009229 -0.0053457 0.0049699 0.0058654 -0.0011176 0.0010624 0.0090712 -0.0054604 0.0014658 0.0019366 -0.0048301 -0.0051324 0.007973 -0.0012064 0.0026329 0.00084037 -0.0068993 -0.0075965 -0.0095028 -0.0062118 -0.0032605 0.0067546 -0.005009 0.0071655 -0.0050436 -0.0046337 -0.001145 -0.00137 -0.0063305 0.0084515 -0.0072991 0.0043539 -0.0053168 -0.0095349 0.0086217 0.0075786 0.0021699 0.0030278 -5.2021e-05 
JavaScript 0.00075766 -0.0065972 -0.0061688 -0.0098926 -0.0038435 -0.0084137 -0.0060874 0.006436 -0.0035327 -0.0071416 0.0096859 0.0071366 -0.0078314 -0.0079875 -0.0090185 0.0033293 -0.0042386 -0.0001626 0.0075089 -0.00089433 0.0029918 0.0050052 -0.00018652 -0.0065563 0.003648 0.00823 0.0073416 0.0054251 0.0096438 -0.00055812 0.0021683 -0.0065547 -0.001056 -0.00059145 0.0020188 0.00057898 -0.0019346 0.0014285 0.0032776 0.0050941 0.0031041 -0.0050768 -0.0076944 0.0036553 0.0029229 0.0091278 0.0014581 0.0069947 0.0097264 0.009746 -0.0066462 0.0096786 -0.0088351 0.0045237 -0.0079747 0.0047166 -0.002282 -0.0080081 0.006907 -0.0033465 0.0081885 0.0016115 0.0083904 -0.0084989 -0.0073575 0.0099591 -0.0039626 0.0052345 -0.008893 0.0016932 -0.0089428 -0.0084569 -0.0089514 -0.0056714 -0.0051092 0.0031694 -0.0049248 -0.0014814 -0.00026755 -0.0089531 -0.0094993 0.0088231 -0.0067975 -0.000166 0.0081816 -0.0090254 -0.0042087 -0.0032268 0.0054629 -0.0031122 -0.0073162 0.0013386 0.0021759 -0.0087988 0.0043859 0.0047823 0.0091034 -3.8007e-05 -0.0066499 0.0075626 
カスタマイズ -0.00023298 0.0067193 -0.0059653 0.00077536 -0.0064325 0.0064129 -0.0070107 -0.0053464 -0.0023119 0.0095133 -0.003881 -0.0033505 -0.0090182 -0.0056734 -0.0033068 0.0033333 0.0038967 -0.0035824 -0.0048671 -0.0059035 -0.0063154 0.001092 0.0061237 0.0077936 0.0069428 -0.0027275 -0.0022035 0.0040283 -0.00632 -0.0045644 -0.0023103 0.0032764 -0.0037307 -0.0046239 -0.0058148 0.0089516 0.0016107 0.0038213 -0.005956 0.0075716 0.0053516 0.0084558 0.0060544 0.0095204 0.0028513 0.0056776 -0.0055165 0.0065413 -0.0073747 -0.00026037 0.0013295 0.0035026 0.0012233 -0.0054437 -0.010003 0.00030089 -0.0013652 0.00052338 -0.0055077 0.0096769 0.00092143 -0.0096869 -0.0022713 -0.0046685 -0.0020488 0.0049038 0.00018184 0.0098096 -0.0025993 0.0031609 -0.0063086 -0.0039402 0.0020881 0.0083456 -0.0030302 -0.0026072 -0.00097551 0.00063675 -0.0046727 0.00355 0.0051506 0.0077109 -0.0022263 -0.0021324 -0.0063299 0.0036726 -0.0080794 0.00043669 0.0029942 0.00018781 0.0015523 0.0047753 0.0095256 0.0038661 0.004838 0.00077795 0.0088474 0.008553 0.0046459 0.0026935 
PHP -0.0012911 0.0061738 -0.0055568 0.0030405 -0.0045623 0.0043579 -0.0071577 0.0044413 -0.0044611 0.0017626 -0.0035264 0.0071112 0.0055793 0.0044851 -0.0064662 0.0033889 0.0042597 -0.0028338 0.0085349 -0.0012876 0.005764 0.0026338 0.0024475 -0.0096913 -0.0091945 0.0050242 -0.0089482 -0.0039818 0.0076135 -0.0059366 -0.0035814 -0.0021101 0.0095688 0.002217 -0.0027831 -0.0022933 0.0076678 -0.0093891 0.0033125 -0.0076252 0.0081724 -0.00063506 0.0050199 0.0044235 0.0080758 0.0040664 0.0059361 0.0090319 0.0035095 0.0075494 -0.00034695 -0.010046 0.0048502 0.0069972 0.0051917 -0.00090837 -0.0058449 -0.0016734 0.0012629 0.0054491 0.010068 -1.1904e-05 0.0043418 -0.0048514 0.0036264 0.0075089 0.0036677 0.00023873 -0.010007 0.0071887 0.0037138 0.002154 -0.00023124 0.0079814 0.0061418 0.0021782 0.0094979 -0.0041137 -0.0098875 -0.0092536 -0.0038042 0.0012156 -0.00062945 -0.0075354 -0.0027095 -0.00029521 -0.00065547 -0.0021239 0.007234 -0.0056583 -0.00035557 -0.00040238 -0.0014559 -0.0086748 -0.0098324 -0.0088888 -0.008172 0.0033947 0.0020527 -0.0033846 
者 -0.0030995 0.0022109 0.0053824 0.0078674 0.0073849 -0.0041933 -0.0081073 -0.0035989 0.0094223 -0.0048734 0.006199 0.0098985 -0.0066184 -0.004418 0.0065416 0.0064953 0.0091964 0.0083634 0.0051985 0.0015815 -0.0067092 -0.0084138 0.0034421 0.0021778 0.0063502 0.0034152 -0.0074711 0.0082114 -0.0020134 0.0012891 0.0012276 0.0095096 0.0064057 -0.0011412 0.0099162 -0.0013505 -1.9364e-05 -0.00052772 8.2174e-06 0.0078158 -0.0092361 -0.0043709 -0.0048328 -0.0083022 -0.002079 -0.0056723 0.0042064 0.007268 -0.0035751 -0.0039787 0.0066966 0.0035311 0.0040162 -0.0030963 -0.0084837 -0.0028973 0.0042972 -0.0058211 -0.0047104 0.0080937 0.0097808 0.001257 -0.0037157 0.0059654 -0.0063031 0.0019071 0.0045006 0.0033103 0.0096585 0.0066074 -0.0057503 -0.0025397 0.0076321 -0.00025483 -0.0025514 -0.0041665 -0.0003197 -0.0058385 -0.0012427 0.0037773 -0.0045647 -0.0090056 0.0057879 -0.0014159 -0.0087894 -0.0090861 0.0062717 0.0043994 -0.0067545 -0.0082973 0.008237 -0.0099591 0.0029232 0.0029632 0.0070828 0.0073559 0.0047697 0.0064108 0.0074368 -0.0013829 
系 0.0019223 0.0097288 -0.0085307 0.0063215 -0.0095576 -0.0031527 -0.0078855 0.0031646 -0.0027744 -0.0042429 -0.0089712 0.0093942 -0.00013865 0.0066106 0.0041524 -0.0078219 -0.0058217 0.0014315 0.0018852 0.0083031 -0.0009221 0.0040842 0.0041196 0.0054981 -0.006113 -0.00012809 0.0014642 -0.0041857 -9.4676e-06 0.0093945 -0.0012001 0.0064624 0.0093306 -0.0069282 0.0054913 0.0072467 -0.0056073 -0.0034547 -0.0042195 0.0065949 0.002022 -0.00082149 0.0043278 -0.0070459 0.005772 -0.0052236 -0.0064706 -0.0032491 0.00010443 0.0055629 0.0095406 0.0070357 0.0010104 -0.009869 -0.0032551 -0.0098485 0.0057902 -0.0085293 -0.0030405 -0.00013788 -1.2502e-05 -0.0010612 -0.0081944 0.00058083 -0.0060047 -0.0031239 -0.0055865 -0.001372 -0.0030195 -0.00073465 0.00069365 -0.0020955 -0.0056688 -0.0080397 0.003279 -0.0093432 -0.0094218 0.0045714 -0.0082929 0.0042276 -0.00068383 -9.2969e-05 0.0004655 0.010116 0.0025882 0.0054476 -0.004768 -0.0035578 0.0086638 0.0093673 0.0066933 0.00051489 0.0021149 0.0084129 -0.00083901 -0.0045816 -0.004406 -0.0053726 -0.0080245 0.0041484 
作り 8.0032e-05 -0.0058798 -0.0037969 0.0073916 -0.0011526 0.0035353 0.0053073 -0.0095633 -0.0073164 -0.0008333 0.0031434 -0.0022503 -0.002784 -0.0074611 0.0078664 -0.0040194 0.0040504 0.0058653 0.0058286 0.0072096 0.0089722 -0.0091678 0.00085714 -0.0019129 -0.004649 0.0046821 -0.0027509 -0.0084085 -0.0027775 -0.00072208 -0.0070247 0.009304 0.0092226 -0.0049952 -0.0049726 -0.0096376 2.2996e-05 -0.0062799 7.1921e-05 0.0086993 -0.0034802 -0.0011566 -0.0028344 -0.00031074 -0.0029538 0.0060854 -0.0073535 -0.0089471 0.00243 -0.0023841 0.0065008 -0.0015687 -0.0044979 0.0031141 0.0038495 -0.0073955 0.0017051 -0.0085159 -0.00083079 -0.007037 -0.0007693 -0.0040853 0.0049985 0.0010108 -0.0078059 0.0073624 0.009947 0.0086663 0.0071996 0.0070928 -0.0082913 -0.0034729 0.0062804 0.0063667 -0.006183 -0.0029175 -0.0089324 -0.00568 0.0046042 0.007816 0.003544 -0.0002401 0.0088874 -0.0065897 -0.0016267 0.0022387 0.0094537 -0.0075169 -0.0014802 -0.0053677 0.0064909 0.0059036 0.00050233 -0.0012469 0.0082598 -0.0034916 -0.005301 0.0010745 -0.004261 -0.0035123 
修正 0.0071561 0.00039327 0.0090456 0.0068916 -0.0058164 0.0038785 -0.0060786 0.0028514 -0.0062181 0.0065377 -0.0097486 -0.0061731 0.0044891 -0.00037633 -0.0045366 0.0021715 0.0055595 0.002009 0.0061053 -0.00821 -0.0086845 0.0060866 -0.007417 0.0048232 0.00061035 0.0078143 -0.0026646 0.0036027 -0.0091826 -0.0024684 -0.0092064 -0.0034682 0.0018415 -0.0083849 -0.0073883 -0.0035574 -0.0025828 -0.0031054 -0.00109 0.0081377 -0.0050761 -0.0073462 0.007666 0.0039682 0.0057811 0.0053871 0.0054737 -0.0090172 0.00069817 0.0066775 0.0069222 0.008416 -0.0094794 0.0018337 -0.0026532 0.00077929 -0.00051077 -0.009975 0.00022652 0.00071366 0.0093132 0.0051587 -0.010005 -0.0046992 0.0086273 -0.00035009 -0.0070496 -0.0051361 -0.000557 0.0051643 -0.0094898 -0.0085453 0.0058504 0.0044514 -0.0048047 -0.0040702 0.0086815 -0.0058454 0.0082933 -0.0095461 0.0044708 -0.0039215 0.0010303 0.0072711 -0.0012174 0.0055534 0.00051028 -0.0047205 0.0049648 -0.0099037 -0.0098455 0.0040304 -0.0015817 -0.0011824 0.0071411 0.00083377 0.0066558 -0.0036165 -0.0090213 -0.0058753 
て 0.0085784 -0.0016231 -0.007831 0.0060847 -0.0034241 -0.0053456 -0.0030005 -0.004208 0.0075756 -0.009172 -0.0007072 -0.0057832 0.007999 0.002138 -0.001358 -0.0039984 0.0087488 0.0035273 -0.0074889 0.0034361 -0.0010953 -0.0035515 0.001614 -0.0081903 -0.0057641 -0.00034034 0.0034323 0.0031726 0.0073361 -0.0069067 0.004659 0.0078203 0.0095816 -0.0083752 -0.0094355 -0.0044249 -0.0059999 0.0067161 -0.0080979 -0.0060201 0.008395 -0.0093364 0.0088786 -0.0007893 0.0015645 -0.006549 0.0033603 0.0085341 -0.0092134 -0.00073771 1.8031e-05 0.00031773 0.00061328 0.0010302 -0.0010469 -0.0085028 -0.0060175 -0.0066401 -0.0062059 0.00013961 -0.0050114 -0.0023676 0.0036075 -0.00099055 -0.0063851 -0.003825 -0.00016218 -0.0076055 0.0021977 -0.0085371 -0.0075624 -0.0077296 0.0077068 -0.0060825 0.0027892 -0.004081 -0.003014 -0.0063839 -0.0082904 0.0031711 0.0083287 0.006452 0.0078437 -0.0038753 -0.0036874 -0.0085809 -0.0056234 0.003352 -0.0074464 0.0085721 -0.0044899 0.0087867 0.0048221 -0.0013218 -0.0053497 0.006322 0.0060049 0.006202 -0.0014653 -0.0057844 
解析 -0.008381 -0.0080148 -0.0099308 0.0053342 -0.0089736 0.0079273 -0.0014131 0.0050084 -0.0087605 0.0043959 0.0017471 -0.0066151 -0.010056 -0.008533 -0.00058863 -0.0044366 0.0093292 0.0023482 0.0074164 -0.0080541 -0.0089358 -0.0057018 0.0011225 0.0015809 -0.0019006 -0.010182 0.00080391 0.0053936 -0.0065022 -0.00059086 0.0072419 -0.0020302 0.0078622 -0.0017154 -0.0010438 0.0012077 0.0098289 -0.00071203 0.00055143 -0.0067973 -0.0038059 0.0088626 -0.0051561 -0.0045362 -0.0047457 0.0023935 0.006348 0.0059067 -0.0071483 -0.0063036 -0.0083557 -0.0082818 0.0074723 0.0057689 0.007954 0.0066535 4.7936e-05 -0.0013874 -0.0017744 0.0028291 -0.0017827 0.0075296 0.0024669 0.0063078 -0.0047596 -0.0069162 0.0077195 -0.0011119 -0.0061456 -0.0052309 0.0050341 0.006943 -0.0029084 -0.008323 -0.0073298 0.008705 0.010307 0.0048856 -0.006147 0.0047702 0.0043619 -0.0087892 -0.0043947 0.0094742 0.0091504 -0.0028873 -0.0096512 0.00056359 0.0024238 -0.009128 -0.0089725 0.0021448 -0.00038537 -0.002705 0.0033249 0.0051533 0.00025792 -0.0068418 -0.0059436 0.0015991 
何 -0.0082713 -0.0027374 -0.0072168 -0.0086549 0.006118 -0.0066762 0.0053066 0.0046678 -0.0056672 -0.0060315 0.00028788 -0.0065875 0.0020873 0.00054203 -0.0062492 -0.0084598 0.0032372 -0.0080945 0.0013265 0.0065992 0.0050943 0.0056128 0.0029499 -0.003282 0.0090492 0.001409 -0.0081806 -0.0084954 0.0010931 0.0075258 -0.00093336 0.0068843 -0.0086397 0.0012532 -0.00064362 -0.0048145 -0.0092336 -0.0016559 0.0065071 0.0092564 -0.0031552 -0.0029892 0.00052432 -0.0025622 -0.010077 -0.0083871 -0.0022938 0.0022119 -0.0070285 0.0024127 0.005357 -0.0016055 -0.00077891 -0.003318 0.0099226 -0.0037784 0.0011891 -0.00040611 0.0013656 0.0059719 0.0089118 0.0040732 -0.0084329 -0.00081755 -0.004256 -0.0038133 0.0059366 -0.0075721 -0.006239 -0.0029356 -0.0074151 0.0038048 -0.00054035 0.001131 -0.0015298 0.0069901 -0.0055525 -0.0050214 0.00027039 0.00084547 -0.005136 -0.0018654 -0.0037007 -0.0093077 -0.005243 -0.0033148 0.0056662 -0.0098663 0.0022213 5.1359e-05 0.00078656 0.0067847 0.0095171 0.0089361 0.00034831 0.0013 0.00047107 -0.0031188 -0.00030209 -0.002083 
ページ 0.0023384 0.0081875 0.0088501 -0.0078738 -0.0083921 0.0087863 0.0040185 0.0095082 -0.0026727 -0.0012633 0.0067225 -0.003655 0.0029014 -0.0093158 -0.0064578 0.0086677 -0.0058922 0.0057482 -0.0010168 0.0068308 -0.0028603 -0.0091798 0.0089724 0.0050646 0.0081249 0.0055652 -0.0090608 0.0013127 -0.0075098 0.0038579 -0.0075558 -0.0013148 -0.0081152 -0.001594 0.0024192 0.0092565 0.0086431 -0.0049011 0.0096193 0.0091165 -0.0044934 0.0015033 0.002119 0.0090162 0.0030108 0.007043 -0.0029122 0.0017605 0.0035077 0.0056435 0.0038309 0.0045535 0.0098017 0.0070257 0.0093358 -0.0046835 -0.0045903 0.0062532 0.00058359 0.004807 0.0023744 -0.0099739 0.00036709 -0.0090333 0.00019024 -0.005323 -0.0060954 0.0062882 -0.0033952 -0.0078171 0.0014794 -0.0096164 -0.0047756 -0.00037151 -0.0098263 -0.0045894 -0.0067512 -0.0003308 0.0062289 0.0062939 0.002241 0.00050863 0.0062221 0.008283 0.00671 0.0044182 0.005526 0.0053365 0.0079205 0.0032956 0.0034814 0.0088787 0.0030252 -0.0095516 -0.0061362 -0.00040213 -0.0054055 -0.0047771 0.0047967 -0.0028353 
内容 -0.0062637 -0.00053541 0.0034189 0.00017085 0.008292 0.0012073 -0.0098144 0.0063283 0.0072895 -0.0017195 -0.00071157 0.0013366 0.0054791 0.0096557 -0.0073403 -0.0073509 -3.9505e-05 -0.0037502 0.00030513 -0.0097088 -0.0071704 -0.00044116 -0.0023461 0.0081701 -0.0094954 -0.0023458 -0.009081 0.00073246 -0.0086273 0.0090523 0.0021162 0.0024726 0.0092521 -0.0041379 -0.0007624 -0.0038807 0.00045289 -0.0059544 -0.008547 0.0099186 -0.0055781 -0.0041497 0.0085584 0.0015488 0.0017554 -2.0151e-05 -0.0047993 -0.0027531 -0.0014182 -0.0083035 -0.0015061 0.0012834 -0.0078251 -0.0069384 0.0089845 -0.0047178 0.0026523 0.0065315 0.0052597 -0.0059446 0.008033 0.0016176 0.0074335 0.0043851 0.0076479 0.0039471 -0.002869 -0.0023396 -0.0084435 -0.0084888 0.0071441 0.0098603 0.0016013 0.0098485 0.0028109 -0.0031656 -0.0048819 -0.00086347 0.0034351 -0.0093188 -0.0031925 0.0074726 -0.0079411 0.004057 -0.005392 -0.0021647 -0.0032503 0.0063377 -0.0056949 0.00064163 0.0055297 -0.0063451 0.0053825 0.0028264 -0.0077714 -0.010061 0.0054993 -0.0064174 0.0052367 0.00081926 
向け -0.0078915 0.0066809 -0.0003934 -0.0031565 -0.0097777 0.0069688 -0.00083777 0.0038086 0.00329 0.0096373 -0.010074 -0.0067431 0.0026975 -0.0097534 0.0092138 0.0073646 0.0097209 -0.0077375 -0.0013021 0.0063103 0.0080305 -0.009712 -0.00047268 -0.0032146 -0.0092668 -0.0035671 0.0090895 -0.0029575 0.00099448 -0.00031778 0.0092082 0.0027905 -0.0061351 0.0017202 0.002705 -0.0099396 0.0062602 0.0073411 -0.0014438 -0.0054573 -0.004017 -0.0094021 -0.002703 -0.0059019 -0.0071419 0.0079339 -0.0023292 -0.0056567 -0.0068151 0.0067928 -0.0095308 -0.0009096 0.0013586 0.0068112 -0.0065765 -0.0073233 -0.0029666 0.00083838 -0.0061663 0.0043265 -0.0070463 -0.0038005 0.0038152 -0.0088739 -0.00089329 0.0024223 0.0050371 -0.0073015 -0.0086568 -0.0017401 0.00022134 0.009251 0.0059209 -0.0025622 0.003785 0.003071 0.0058231 -0.0038037 -0.00055271 -0.0084275 0.00030294 0.004664 -0.0047217 -0.0061561 0.0044588 0.0006953 0.0023543 -0.0096131 -0.0081905 0.0061219 -0.0095409 0.0053987 -0.0062782 0.0078538 0.0073135 0.0072907 0.00022542 0.0015342 -0.0044273 0.0069456 
手伝い -0.0090229 0.0024991 0.0021468 0.0097936 0.0072559 0.0035761 -0.009761 0.0062286 -0.0020023 0.004214 -0.0085251 -0.0070285 0.0099681 0.0020164 -0.0089567 -0.0097998 0.0031856 0.0068275 -0.0051935 0.0023364 -0.0090139 -0.0066881 0.0092389 -0.0063564 -0.0021069 0.004643 0.0028134 -0.0073098 -0.0063347 0.0090329 -2.8288e-05 -0.0040799 0.0092271 -0.0079843 0.0050275 0.0023677 -0.0018821 -0.0015731 -0.0024585 -0.0049052 0.0043661 0.0029257 -0.0064587 -0.0018903 0.0042756 -0.0007658 0.0044097 -6.3328e-05 0.00077305 -0.0068498 -0.0061933 -0.00011714 -0.0080307 0.0051574 -0.0072696 -0.00020997 0.0030916 0.0070962 -0.0073914 -0.0044282 -0.0064124 -0.0043029 0.0048343 0.0013347 0.0087717 0.0036631 0.0031769 -0.0079049 0.0046116 -0.0017286 0.007106 0.0007793 -0.0041588 -0.0062383 -0.0043853 0.010023 -0.0031513 -0.0035786 -0.0072703 0.0023278 -0.0090392 0.0061345 0.0084525 0.0066219 0.0085167 -0.0097821 0.0074093 0.0026638 0.00015655 -0.0051299 0.0049771 0.009345 0.0027192 -0.003316 -0.0042605 -0.00057951 0.0095737 -0.0075687 -0.0010666 0.0092145 
好き -0.0084301 -0.0090384 -0.0085216 0.0052465 0.0065292 0.0081285 -0.0071157 0.0073795 -0.0017044 0.0011811 -0.00084133 0.0076925 -0.0055271 -0.0027386 -0.00098174 0.0016729 0.0060056 0.0066814 -0.0014443 -0.0095782 -0.0096513 -5.6806e-05 0.0068889 0.006256 -0.008187 -0.0095454 -0.0037129 0.008197 -0.0037447 0.0011948 -0.0030637 0.0068976 -0.0033638 -0.00058243 -0.0032932 0.0069315 0.003912 -0.0013086 -0.00123 0.0075967 0.0040716 0.0013177 -0.00052134 -0.0031448 0.0046458 -0.0061979 0.0036129 -0.007033 0.0046858 0.01009 0.0065117 0.0096034 -0.003722 0.0071752 -0.0031465 -0.0098253 -0.0026145 -0.0089468 -0.004026 -0.0053011 -0.003658 -0.0020927 0.0026336 -0.0041887 0.0037798 -0.0071137 0.0064527 0.0020675 -0.0073593 -0.0044824 0.0072185 -0.0026831 -0.0041885 0.0052252 0.0058317 -0.005798 0.0049317 -0.007015 0.0039106 0.0064881 -0.0082966 0.005843 -0.0040047 0.002691 -0.00050155 -0.0042256 -0.0097702 -0.0071447 -0.0031547 0.0026648 0.0040581 -0.0094232 0.0067102 0.0083426 0.0097729 -0.00094893 -0.0078196 -0.0086713 0.0064726 0.0082528 
について 0.0076792 -0.0042514 0.0087372 0.0044644 -0.0054512 -0.0053954 -0.0086762 0.005011 -0.0027832 -0.0042683 0.0074794 0.0027081 -0.0087947 -0.009088 0.0066684 0.0060973 -0.0030473 -0.0054405 0.0059818 -0.0079574 0.0073553 0.0039707 0.0012961 0.00023225 -0.0019924 -0.0030498 0.0090239 -0.002391 -0.0090091 0.0070764 -0.0097627 0.0010082 -0.0098545 -0.0097641 -0.0092674 -0.0091157 -0.0067402 0.0023727 0.00080817 0.0053171 0.00039616 -0.00062742 0.0055282 -0.0076948 -0.0047536 -9.3071e-06 0.0036526 0.0026969 0.0064738 -4.1492e-05 -0.0046519 -0.0011125 -0.0018033 0.007954 -0.00089791 -0.0052502 -0.0020663 -0.0098191 -0.0043861 -0.0028376 0.0094885 -0.0035837 0.0039552 0.0019806 -0.0090566 0.0058068 0.0054268 -0.0038576 0.0043476 -0.0015723 0.0074431 0.0080949 0.0041251 -0.0039325 -0.0052028 -0.0023591 -0.0092861 -0.0063903 0.0050091 -0.0080736 -0.0074921 -0.0071737 -0.0073872 0.0071366 0.0046058 -0.0050702 -0.0046686 0.0080365 0.0084374 -0.0035109 -0.0059242 0.0031814 -0.0097105 0.0030003 0.0046355 -0.0065163 -0.00044953 0.0027831 -0.0086689 -0.0016456 
, -0.00023766 0.0045461 0.0053501 -0.0032859 -0.00086278 -0.0035399 -0.0073923 0.0095271 -0.0031905 -0.0035316 -0.0076977 0.0026731 0.0015437 -0.0018119 -0.0084406 0.00027919 0.0099027 -0.0061338 -0.0040967 -0.0021427 0.0078761 -0.0081862 -0.0076467 -0.00025034 0.0083591 -0.0037629 -0.0040952 -0.0065401 0.0084166 0.0087047 -0.0050791 -0.0004179 0.0039148 -0.0030962 0.0051745 -0.0032795 -0.004261 -0.00068772 -0.00034032 -0.0085973 -0.0020909 -0.0071016 0.0005835 -0.0023485 0.009652 0.0032822 0.0095678 -0.00020614 0.0081859 -0.0063341 0.005901 0.0022517 -0.0092813 -0.0029973 -0.0014437 0.004523 0.0046749 0.0030486 -0.004486 -0.0030179 -0.001222 -0.0028522 0.0063614 0.0040231 0.0070405 0.0026052 0.0016337 -0.0066044 0.00077078 0.0066808 0.00032866 0.0067944 -0.00065204 -0.00010164 -0.0012417 0.0085244 0.00028624 0.0069652 -0.0048101 -0.0012073 0.003546 -0.0055572 0.0039183 0.0040445 -0.0061236 0.0099623 0.0019631 0.0031036 -0.0067245 0.0032433 0.0058455 -0.0027931 0.0078975 -0.0096744 0.0075049 0.0085036 0.0084524 -0.0064275 0.00053112 0.0054033 
c 0.0032018 0.0018512 -0.0039705 0.0047092 -0.00026727 0.0090214 -0.0091936 0.00024412 -0.0089934 0.0074197 -0.0075781 -0.0068897 -0.0044329 0.0032929 0.0037096 -0.0021059 0.001489 0.0015673 -0.0099183 0.0074804 -0.0063351 -0.0030669 -0.0072741 -0.0032386 0.00053326 -0.0061685 0.0099304 -0.0081744 -0.0096065 -0.00082019 0.0026935 -0.002162 -0.0040995 -0.0010672 0.0039891 0.0066081 0.00040878 -0.0048074 0.0093449 -0.0039833 0.001596 0.0081787 -0.0030226 -0.0073584 0.00018941 0.0051282 -0.0034364 0.0085833 0.0066083 0.0016822 0.0088343 -0.007641 0.00074664 0.010099 0.0050534 -0.0023124 -0.00019914 -0.0017201 0.0049075 0.00080845 0.0032924 -0.0016169 -0.0093129 -0.0056655 0.0016722 -0.0094107 -0.0069256 0.0091649 0.0025836 0.0053365 0.0020106 0.0099252 0.00094735 -0.0038608 -0.010056 -0.0017504 -0.0040407 -0.0057505 0.0076438 0.0053198 0.0058414 0.0055922 -0.0053568 -0.0039543 -0.0033999 0.0079119 -0.0093522 0.0058618 -0.0021431 -0.0051469 -0.00068259 0.008143 0.0040072 -0.0089441 -0.0058502 -0.0015084 0.0036855 -0.0065567 -0.0082289 -0.00090657 
基礎 -0.0013464 -0.006083 -0.0028699 0.0031469 -0.0015049 0.00024566 0.0091094 -0.00089294 -0.0096192 0.0020741 -0.0023629 0.004519 0.0015942 -0.0078154 0.0053837 -0.0080593 0.0012183 -0.0022465 -0.0083424 -0.0087633 -0.0064335 -0.0050763 -0.0019195 0.004293 -0.0073866 -0.0028152 -0.00036414 -0.0079301 -0.0060247 -0.003259 -0.0064502 -0.0056593 -0.0058951 -0.0050653 0.0098161 -0.0039244 -0.0087031 0.0011534 0.0020986 0.00012826 -0.00088247 0.0067259 -0.0074055 -0.00059489 -0.0089373 0.0088098 -0.00055605 0.0013363 0.0050647 0.0007514 -0.0015314 -0.00028575 -0.00073893 0.003723 -0.0049961 -0.00048266 -0.0017611 0.0019383 -0.002578 0.0098227 -0.0092011 0.0047064 -0.0056788 -0.0061877 -0.0037642 0.001868 0.0056861 -0.00073636 0.0050482 -0.0049834 0.0087581 -0.0038787 0.0080433 -0.0010376 -0.0055054 0.0014723 -0.0058065 -0.0020786 0.0069568 0.0092203 -0.0025886 0.010023 -0.0086381 0.0102 0.0061418 -0.0054518 -0.0031253 0.0049754 -0.00681 -0.0032167 0.0078986 -0.00025803 0.0082138 -0.0076787 0.0014017 -0.0025207 -0.0028398 -0.0044386 -0.0013013 -0.003029 
